dense_1={{-0.029486970975995064, 0.017219549044966698, -0.02740177884697914, -0.07530416548252106, 0.015240385197103024, -0.08149463683366776, 0.07485085725784302, 0.0698947161436081, 0.07252555340528488, 0.037782639265060425, -0.02665582485496998, -0.013518824242055416, -0.004976521246135235, 0.045294128358364105, 0.0025052770506590605, 0.06859757751226425, -0.03373892977833748, -0.06577207893133163, -0.04135827720165253, 0.0063628340139985085, -0.036692649126052856, -0.06966560333967209, -0.05759519711136818, -0.06029219925403595, 0.07615096122026443, 0.022893749177455902, -0.04261481389403343, -0.07131695747375488, 0.06972897797822952, 0.003961664158850908, 0.0333239771425724, -0.016954969614744186, 0.07119983434677124, -0.04941144585609436, -0.007501089479774237, 0.02951461635529995, -0.020049119368195534, 0.04190533235669136, 0.07944698631763458, 0.0018670004792511463, -0.10443161427974701, -0.07164232432842255, 0.5035088658332825, 0.8121172189712524, 0.3787255883216858, 0.07020856440067291, 0.11311648786067963, 0.44200846552848816, 0.6148078441619873, 0.3872971534729004, 0.061977569013834, -0.027270225808024406, -0.07401172071695328, -0.0037627662532031536, 0.026149166747927666, 0.010606800206005573, -0.06324897706508636, -0.0006496307905763388, -0.027185948565602303, -0.48288601636886597, -0.19596947729587555, 0.19542941451072693, -0.04594755545258522, -0.4240093231201172, 0.32408949732780457, 1.545443058013916, 0.4347439408302307, 0.45565563440322876, 1.3483723402023315, 1.4823781251907349, 1.5027154684066772, 0.8692378997802734, 0.07756397128105164, 0.4492335617542267, 1.0328699350357056, 0.9321312308311462, 1.183068037033081, 1.720005989074707, 1.4248629808425903, 0.804774820804596, 0.7467071413993835, 0.49273359775543213, -0.056665148586034775, -0.0449991412460804, 0.004383680876344442, 0.006516090594232082, 0.19722241163253784, -0.4792013466358185, -0.27657079696655273, 0.02471962571144104, 1.0044678449630737, 1.347047209739685, 0.4818386137485504, 0.07176057249307632, -0.035971470177173615, 0.39626890420913696, 0.526262640953064, 0.4780023694038391, 1.1380691528320312, 0.9304584860801697, 0.9030053615570068, 0.4899607002735138, 0.6841562390327454, 0.8162109851837158, 0.6513160467147827, 1.2759455442428589, 2.5185680389404297, 1.328099012374878, 1.2593326568603516, 0.6527002453804016, -0.7719386219978333, -0.026546478271484375, 0.027125388383865356, -0.08443945646286011, 0.06408382207155228, -0.5392828583717346, -0.33805620670318604, -0.05955590680241585, 0.3685699999332428, 0.012716855853796005, -0.04107261449098587, 0.1875019520521164, 0.3432082235813141, -0.20560763776302338, 0.2906356751918793, 0.7565873861312866, 0.28452494740486145, -0.06889726966619492, -0.09078000485897064, 0.07782178372144699, -0.17704235017299652, -0.050708454102277756, 0.3506980240345001, 0.5602830648422241, 0.07511204481124878, 0.6580458283424377, 0.5709831714630127, -0.5952322483062744, -0.7913360595703125, 0.46648719906806946, 0.01413330715149641, 0.035500574856996536, 0.12966756522655487, -0.6141209602355957, -0.6208817958831787, 0.261118084192276, 0.5420160889625549, -0.07985205203294754, 0.2708224952220917, 0.5328704714775085, 0.046162646263837814, -0.5661609172821045, -0.2639932632446289, -0.44505321979522705, 0.007180461194366217, 0.4419024586677551, -0.4109015464782715, -0.48203060030937195, -0.7149921655654907, -0.7761053442955017, -0.1722312867641449, -0.1459399163722992, 0.02436857484281063, 0.2756589353084564, 0.49979913234710693, 0.12601089477539062, 0.41336822509765625, 0.6077440977096558, -0.04132219776511192, -0.09514007717370987, 0.3297702372074127, -0.3731309771537781, 1.0743685960769653, 0.6625543832778931, 0.46800124645233154, 0.791021466255188, 0.12466815114021301, -0.2534498870372772, -0.12831315398216248, -0.028548458591103554, -0.28514108061790466, -0.5113815665245056, 0.08205448091030121, 0.0209505558013916, -0.358316034078598, -0.3052799105644226, -0.21145160496234894, -0.17763365805149078, -0.38074445724487305, 0.06586461514234543, 0.139081671833992, -0.146253764629364, -0.36722907423973083, -0.5356427431106567, -0.6247695088386536, -0.1730232536792755, 0.06781532615423203, -0.2443983256816864, 1.3177591562271118, 0.7170975804328918, 0.24893562495708466, 0.13733060657978058, 0.5449414849281311, 0.30584874749183655, -0.4521903693675995, 0.3129085302352905, 0.04186185449361801, 0.25054314732551575, 0.16894841194152832, -0.31320446729660034, 0.017971619963645935, -0.44169098138809204, -0.14403744041919708, 0.15477119386196136, -0.20357242226600647, -0.16645538806915283, 0.14142276346683502, -0.21168462932109833, -0.19140875339508057, -0.305095374584198, 0.1436590850353241, -0.5779706835746765, 0.10102266818284988, -0.5167742967605591, 0.010980677790939808, 0.8839944005012512, 1.4627808332443237, 0.8299591541290283, -0.184233620762825, -0.11925189197063446, -0.19511793553829193, 0.051336269825696945, -0.35360366106033325, -0.04664486646652222, -0.07968434691429138, 0.31339994072914124, -0.12597210705280304, -0.07878002524375916, 0.2459222972393036, 0.14066477119922638, -0.575281023979187, 0.0020285961218178272, -0.029448524117469788, -0.17496320605278015, 0.07710017263889313, -0.4469963312149048, 0.025340327993035316, -0.3423770070075989, 0.040145304054021835, -0.06153806298971176, -0.019431589171290398, -0.9983207583427429, 0.047203801572322845, 1.730921745300293, 0.7869009375572205, 0.8664305806159973, -0.24676349759101868, 0.3172163963317871, -0.6352932453155518, -0.26664745807647705, -0.42719507217407227, 0.054291632026433945, -0.2281845659017563, -0.23581592738628387, 0.10156963765621185, 0.42138615250587463, 0.2056518793106079, 0.37012845277786255, -0.040224142372608185, 0.07218991219997406, 0.25393423438072205, 0.1365315169095993, -0.23420679569244385, -0.457975834608078, 0.20387528836727142, -0.821620523929596, -1.0939565896987915, -1.2554912567138672, -1.210169792175293, 0.08624524623155594, -0.040444329380989075, 1.3420861959457397, -0.12290547043085098, -0.2388259768486023, -0.21172191202640533, 0.3252794146537781, -0.41771751642227173, -0.08519875258207321, 0.061092618852853775, 0.2819662392139435, -0.0974826067686081, 0.011957197450101376, 0.35177120566368103, 0.5685459971427917, -0.005235421471297741, 0.8781198263168335, 0.6540548801422119, 0.40622803568840027, -0.13869182765483856, -0.005687191151082516, -0.21771541237831116, -0.2795358896255493, -0.3585369884967804, -1.1007630825042725, -1.7578164339065552, -1.0820728540420532, -0.7279490828514099, 0.5650528073310852, 0.5325503945350647, 1.2063144445419312, 0.7250670790672302, 0.9872959852218628, 0.33876833319664, 0.31532052159309387, 0.20985853672027588, 0.2935434877872467, 0.38777053356170654, -0.09815418720245361, 0.3567548096179962, -0.021755952388048172, -0.1757592260837555, -0.28209516406059265, 0.0583171620965004, 0.5222030282020569, 0.6819171905517578, 0.4596245288848877, 0.38253307342529297, 0.03387301415205002, 0.42330148816108704, 0.764968991279602, 0.24779905378818512, 0.23638536036014557, -1.1953372955322266, -1.5307559967041016, -0.680590808391571, -0.12099672108888626, 0.4254845082759857, 0.9073859453201294, 2.0002176761627197, 0.2639296054840088, 0.7198595404624939, 0.21009229123592377, 0.8073426485061646, 0.34836313128471375, -0.014408084563910961, -0.22696465253829956, -0.15617898106575012, -0.4634755551815033, -0.21277926862239838, -0.2601533532142639, -0.1378278285264969, 0.3948390483856201, -0.04887906461954117, -0.08123335242271423, 0.4669771194458008, 0.4390152096748352, 0.07072161883115768, 0.4459347426891327, 0.45977982878685, -0.07750105112791061, -1.0639760494232178, -1.001889705657959, -0.46218475699424744, -0.7331845164299011, 0.047884486615657806, 0.5364305973052979, 1.7979410886764526, -0.5504109859466553, 0.6667677164077759, -0.09323829412460327, 0.225480854511261, -0.1915351152420044, 0.07313643395900726, 0.03513811528682709, 0.29580584168434143, 0.012011281214654446, -0.05269112437963486, -0.023017404600977898, 0.22378146648406982, 0.14925965666770935, 0.1337091028690338, 0.7434670329093933, -0.04467031732201576, -0.041624680161476135, -0.4339625835418701, 0.38453707098960876, 0.1504056751728058, -0.04410358518362045, 0.08522403985261917, -0.48827672004699707, -0.46551263332366943, -0.813127338886261, 0.08392321318387985, 0.0734030157327652, 1.3566062450408936, -0.8685014843940735, 0.36837270855903625, 0.04661547392606735, 0.6562880277633667, 0.3501405715942383, 0.519920289516449, 0.13818109035491943, 0.23124629259109497, -0.35493791103363037, -0.07347109168767929, 0.1044374480843544, 0.3647395968437195, 0.26414063572883606, 0.49111753702163696, 0.2769995629787445, 0.2539377212524414, 0.3845386803150177, 0.28863805532455444, -0.20926915109157562, 0.42599135637283325, -0.3735399842262268, 1.0084789991378784, 0.45388978719711304, -0.32885733246803284, -0.5916091799736023, 0.45164522528648376, -0.4018784761428833, 0.7220043540000916, 0.03497997671365738, 0.5394062995910645, 0.3054799437522888, 0.9552187919616699, 1.0633562803268433, 0.38769978284835815, -0.09934955835342407, 0.08063700795173645, -0.5579037070274353, 0.10913971066474915, 0.10228566825389862, 0.550131618976593, 0.42142489552497864, 0.222004234790802, 0.4500124752521515, 0.25869596004486084, 0.14703696966171265, 0.18570823967456818, 0.30759066343307495, -0.23580403625965118, -0.49037113785743713, 1.301086664199829, 1.0640418529510498, 1.2136679887771606, 0.11249975860118866, 0.6318743824958801, -0.3269379138946533, -0.24934466183185577, -0.5293759703636169, 0.2554149925708771, -0.266218900680542, 0.6488216519355774, 1.0154767036437988, 0.007811885792762041, 0.1770085096359253, 0.12148212641477585, -0.38627341389656067, -0.34022611379623413, -0.18392141163349152, 0.46820536255836487, 0.3880169093608856, 0.41343358159065247, 0.4610220789909363, -0.0054758391343057156, 0.12941719591617584, 0.20096078515052795, 0.18762657046318054, -0.5011090636253357, -0.656114935874939, 0.2693521976470947, 0.28020575642585754, 0.841076672077179, -0.2009260505437851, -0.0469895601272583, 0.3354586958885193, -0.014164525084197521, -1.4457035064697266, 0.2633642256259918, -0.8469430804252625, -0.8825643062591553, 0.2814769446849823, 0.16327735781669617, 0.4601353108882904, 0.4986019730567932, 0.2892301380634308, 0.3603976368904114, 0.2774105966091156, 0.6783798933029175, 0.4515887498855591, 0.006289783399552107, -0.1266620010137558, -0.06345158070325851, -0.2949617803096771, -0.10916353017091751, 0.2841242253780365, -0.6379956603050232, -0.35252079367637634, 0.3567325174808502, 1.208106517791748, 1.0247111320495605, 0.1237247958779335, -0.025192921981215477, 0.32207971811294556, 0.24727749824523926, -0.3306023180484772, 0.5011577606201172, -0.13544009625911713, -0.7543487548828125, -0.10662524402141571, 0.04782170429825783, 0.4072602391242981, 0.23205913603305817, 0.4219754934310913, 0.4308870732784271, 0.27106723189353943, 0.5637156963348389, 0.29263636469841003, -0.2680634558200836, -0.1625734120607376, -0.07068432867527008, 0.35486263036727905, 0.02201581560075283, 0.40011513233184814, -0.7589218616485596, 0.24705661833286285, 0.6233164072036743, 1.5268665552139282, 1.8297476768493652, 0.8753868937492371, -0.024085333570837975, 0.5730487108230591, 0.9103025794029236, -0.06455205380916595, 0.5466030240058899, -0.24342240393161774, -0.6543333530426025, -0.5440879464149475, -0.20697782933712006, -0.39919722080230713, -0.5584195852279663, -0.2595280706882477, -0.13351605832576752, -0.0006775617366656661, 0.3262380361557007, 0.433991402387619, 0.16072645783424377, -0.01987147331237793, -0.11410879343748093, 0.5147473216056824, 0.34282490611076355, 0.21202132105827332, -0.07128234952688217, 0.32551929354667664, 0.7451601028442383, 2.8518083095550537, 1.7453879117965698, 0.9265888929367065, 0.06805387139320374, 0.6899576187133789, 0.48304668068885803, -0.34532636404037476, -0.21802689135074615, -0.4763438105583191, -0.7376691102981567, -0.5800788998603821, -0.22787529230117798, -0.3849555552005768, -0.6668132543563843, -0.41849204897880554, -0.1816556751728058, -0.010105215013027191, 0.17002461850643158, 0.036765728145837784, 0.6270193457603455, 0.11878535896539688, -0.1509973704814911, 0.11069385707378387, -0.22327475249767303, 0.0928126648068428, 0.2668040096759796, -0.44358202815055847, 1.3218435049057007, 2.916591167449951, 1.268935203552246, 0.029580194503068924, 0.3196808695793152, 0.45520350337028503, -0.6705923676490784, -0.9169518947601318, -1.780809998512268, -0.423399955034256, -0.6399056315422058, -0.5204036235809326, -0.5080162882804871, -0.522383451461792, -0.4324127435684204, -0.6057475209236145, -0.37850579619407654, -0.699455976486206, -0.6460163593292236, -0.5316857099533081, -0.23419997096061707, -0.2716773748397827, -0.3182290494441986, -0.584449827671051, -0.8107911348342896, -0.4632734954357147, -0.7355268597602844, -0.634610116481781, 1.7082793712615967, 2.405940532684326, 0.8123896718025208, 0.06214524433016777, 0.38739484548568726, 0.09353375434875488, -0.20932358503341675, -0.25292956829071045, -0.9773050546646118, 0.4563397467136383, -0.42310434579849243, -0.26183271408081055, -0.3803216218948364, -0.4387149214744568, -0.2437959760427475, -0.9366962313652039, -0.9567017555236816, -0.8452439904212952, -0.948498547077179, -0.9144333004951477, -1.0232195854187012, -0.8306585550308228, -0.5674137473106384, -0.5082469582557678, -0.44530588388442993, -0.2052316665649414, -1.1412392854690552, -0.9479439854621887, 1.8630807399749756, 0.9645378589630127, 0.4167664349079132, -0.08181112259626389, 0.08197607845067978, 0.059270210564136505, -0.7002389430999756, -1.3542006015777588, -0.6433165073394775, -0.05558263510465622, 0.2847985327243805, 0.31669238209724426, -0.0665072426199913, -0.2174237072467804, -0.5023161172866821, -0.7546863555908203, -0.3804842233657837, -0.633158802986145, -0.8489203453063965, -0.9565717577934265, -0.6685920357704163, -0.614270031452179, -0.7307285666465759, -0.494722843170166, -0.1870918869972229, -0.8175333142280579, -0.7980471253395081, -1.0451854467391968, -0.11182959377765656, -0.291114866733551, 1.1329785585403442, 0.02435649186372757, -0.05965704843401909, 0.041303593665361404, 0.15416781604290009, -0.5937703847885132, -0.5756874084472656, 0.6821333169937134, -0.16940073668956757, 0.10773633420467377, 0.08156128227710724, -0.12038175016641617, 0.009264609776437283, -0.39572814106941223, -0.1446618288755417, 0.31775322556495667, -0.4766319692134857, -0.42506739497184753, -0.7503790259361267, -0.2450324445962906, -0.4676987826824188, -0.09070861339569092, 0.01927666738629341, -0.10675647854804993, -0.6368756890296936, -0.46462804079055786, 0.8323748707771301, 0.8971707224845886, 0.9304539561271667, 0.07561987638473511, -0.06651727855205536, 0.006461346056312323, -0.6073923110961914, 1.5405977964401245, 0.24333110451698303, 0.22434952855110168, -0.6181076765060425, 0.46780794858932495, 0.6480708718299866, 0.610160768032074, -0.19808079302310944, 0.133065328001976, 0.29319480061531067, -0.15866312384605408, -0.1572270542383194, -0.2469794750213623, 0.19696705043315887, 0.0801592543721199, 0.44935232400894165, -0.19247236847877502, 0.15029609203338623, 0.48559218645095825, -0.03184466436505318, 0.9764840602874756, 0.8803178071975708, 0.5734769701957703, 0.5093865990638733, -0.006434096954762936, -0.04099716991186142, 0.04309741407632828, -0.07058704644441605, -0.2620960772037506, -1.076607346534729, 0.37224432826042175, 1.0588290691375732, 1.2914313077926636, 1.4289824962615967, 1.0557619333267212, 1.040913462638855, 1.3430975675582886, 1.3072127103805542, 0.34379124641418457, 1.2433420419692993, 1.866528034210205, 1.833471655845642, 0.8408668041229248, 1.0889922380447388, 0.9749096632003784, -0.23078419268131256, -0.7057543396949768, -0.4784618616104126, 0.5483584403991699, 0.05618138611316681, 0.06138278543949127, 0.03553425148129463, -0.022191673517227173, -0.02842451073229313, -0.03822821378707886, 0.029603803530335426, 0.07821802794933319, 0.06181042268872261, 0.16338399052619934, 0.4864627420902252, 0.8920194506645203, 0.8669816851615906, 1.0904535055160522, 1.430537223815918, 1.4703547954559326, 2.0344009399414062, 1.9656853675842285, 1.2568082809448242, 0.8602475523948669, 0.27349570393562317, 1.7958334684371948, 0.36608290672302246, 0.9048705697059631, 0.7627139687538147, 0.3937285542488098, 0.24088966846466064, 0.7458128333091736, -0.029750846326351166, 0.07234419137239456, 0.03129883110523224, 0.00319104571826756}, {-0.03195629641413689, -0.013852853327989578, -0.040185291320085526, -0.041233181953430176, 0.02407468482851982, 0.0647510290145874, 0.07008484750986099, 0.006172545719891787, -0.06778483092784882, -0.018811287358403206, -0.0777817815542221, -0.047676071524620056, -0.24186991155147552, -0.26683592796325684, 0.05645756050944328, 0.013447050005197525, -0.08626439422369003, 0.017397582530975342, 0.044501662254333496, 0.07048045098781586, -0.00861494429409504, 0.05278493091464043, -0.05151000991463661, 0.0001350494712824002, -0.05047165974974632, -0.06953239440917969, 0.02103649452328682, -0.07021503150463104, 0.05291791260242462, 0.019427845254540443, -0.03951899707317352, 0.0318923145532608, -0.0534970760345459, 0.018336739391088486, -0.024583322927355766, 0.04638165608048439, 0.10837260633707047, 0.010605237446725368, 0.07279491424560547, 0.09487497806549072, -0.30895283818244934, -0.256590873003006, 0.927635669708252, 0.845686137676239, 0.6543879508972168, -0.6381651163101196, -0.4700038433074951, -0.1708795577287674, -0.46240556240081787, -0.4162929356098175, -0.12044337391853333, 0.0544918067753315, -0.07201382517814636, -0.07990434765815735, -0.01213340274989605, 0.005734237376600504, 0.07875892519950867, -0.012051085010170937, 0.013337169773876667, 0.08551628887653351, -0.023268021643161774, -0.21912957727909088, -0.2601442337036133, -0.8429847955703735, -1.2720762491226196, -1.546536922454834, -1.221946120262146, -1.8216137886047363, -1.9132649898529053, -1.3768491744995117, -1.0231459140777588, 0.08315970003604889, 0.12120142579078674, -0.28598758578300476, -0.7762091159820557, -0.1363934427499771, -0.008332901634275913, -0.9254341125488281, -0.6830651164054871, -0.5440594553947449, -0.35879072546958923, -0.20684845745563507, -0.05275428667664528, 0.06703699380159378, -0.0019555347971618176, 0.042871348559856415, -0.23704437911510468, -0.01947927661240101, 0.23420023918151855, 0.4732305705547333, 0.31093087792396545, 0.28688693046569824, -0.42162296175956726, -0.4780668616294861, -0.0437203086912632, -0.17889869213104248, -0.19313715398311615, -0.3895485997200012, -1.0677558183670044, 0.11707254499197006, -0.5015171766281128, -0.2978036105632782, 0.8077797293663025, 0.13720782101154327, -0.30332303047180176, -0.5706807374954224, -0.036232419312000275, -0.5712422132492065, -0.94775390625, -1.5570861101150513, -0.6870505809783936, 0.07806750386953354, -0.05018024146556854, 0.40008416771888733, 0.0363900251686573, 0.26099082827568054, 0.978276252746582, 0.011618854478001595, -0.5883131623268127, -0.09581910073757172, 0.07131313532590866, -0.6534209251403809, -0.07772736996412277, 0.038308341056108475, -0.12022610753774643, -0.15298135578632355, -0.231149360537529, 0.5099483132362366, 0.0756211131811142, 0.11734651774168015, 0.4375878572463989, -0.06738000363111496, -0.46510401368141174, -0.360925555229187, 0.27481669187545776, -0.11686640232801437, -0.003996430896222591, 0.04877326264977455, 0.2792888283729553, -0.6514602303504944, 0.01783830113708973, 0.057906873524188995, 0.5509945154190063, -0.006293433252722025, -0.19762763381004333, -0.26378095149993896, 0.1430283933877945, 0.8925601243972778, -0.30012500286102295, -0.640241801738739, -0.5530017614364624, -0.45342907309532166, -0.38895687460899353, 0.3393443524837494, -0.0759129449725151, -0.31031930446624756, -0.21345071494579315, 0.3173965811729431, 0.062182292342185974, -0.15230585634708405, -0.17769509553909302, 0.03737737610936165, 0.561631441116333, -0.3248647153377533, -0.10991823673248291, -0.2324977070093155, 1.24532949924469, -0.3554801046848297, -0.08417584002017975, -0.032109335064888, 0.05504223704338074, -1.2657859325408936, -0.4352865517139435, -0.4259885251522064, 0.23999935388565063, -0.8478754162788391, -0.5830618739128113, 0.39966881275177, 0.4154353439807892, -0.05297476053237915, 0.0031502163037657738, 0.4116883873939514, 0.49365901947021484, 0.030428379774093628, 0.1743440330028534, 0.405571311712265, 0.1417212039232254, 0.2651626765727997, 0.46301957964897156, 0.28546321392059326, 0.47956252098083496, -0.06992477923631668, 0.5656558275222778, 0.5385951399803162, 1.055428147315979, -0.26064127683639526, -0.046656057238578796, -0.3986636698246002, -0.4018165171146393, -1.1300359964370728, -0.13758578896522522, 0.3182017207145691, 0.21889618039131165, -0.6217738389968872, -0.16794037818908691, -0.24798819422721863, 0.24825115501880646, -0.07955425977706909, 0.313009649515152, 0.10249467194080353, 0.529151201248169, 0.3744618594646454, 0.2626228928565979, 0.05737343430519104, 0.08549773693084717, 0.30285054445266724, 0.6738507747650146, 0.44899365305900574, -0.014809428714215755, 0.14020255208015442, -0.8508927226066589, 1.0218310356140137, 0.41271254420280457, -0.053265515714883804, -0.09262572973966599, -1.0257344245910645, -1.1485286951065063, -0.632317304611206, 0.4237825274467468, 0.14008361101150513, 0.051399439573287964, -0.08803301304578781, -0.34270909428596497, -0.31063997745513916, -0.345304012298584, 0.17798179388046265, 0.011254568584263325, 0.07568752765655518, 0.20758534967899323, 0.09589950740337372, 0.16660398244857788, -0.2265816479921341, 0.16915571689605713, 0.13295546174049377, -0.255411833524704, 0.022224878892302513, -0.17946858704090118, -0.35021674633026123, -0.720071017742157, 1.2384010553359985, 1.5501844882965088, 0.776833713054657, 0.04655762389302254, -0.8975521326065063, -0.947772204875946, -0.5401694178581238, -0.04395579174160957, -0.4996143579483032, -0.0060292258858680725, -0.03163690119981766, 0.05223464220762253, -0.303159236907959, -0.02343352697789669, -0.09023730456829071, -0.15411421656608582, 0.017176546156406403, -0.10903120040893555, 0.18691182136535645, -0.037513069808483124, 0.0639316514134407, 0.02346338890492916, -0.17490758001804352, -0.48543840646743774, -0.28405067324638367, 0.22072061896324158, -0.18050606548786163, 1.045507788658142, 1.899507999420166, 1.3161101341247559, 1.01328444480896, 0.05064890533685684, -0.5291936993598938, -0.4525284767150879, 0.34346553683280945, 0.0258193276822567, -0.7049622535705566, 0.14985384047031403, -0.07377069443464279, 0.19758759438991547, -0.4235515594482422, -0.49722132086753845, -0.27997341752052307, -0.09592480212450027, -0.4316660761833191, -0.47899648547172546, -0.5714758038520813, -0.10705327987670898, -0.08502618223428726, 0.1613718867301941, 0.5842874050140381, -0.07335205376148224, 0.20889556407928467, 0.4350876808166504, -0.1955110877752304, 1.124535083770752, 1.4621154069900513, 1.44827139377594, 0.2575340270996094, -0.12719009816646576, -0.3051275312900543, -0.4570212960243225, -0.7003710269927979, -0.07429058104753494, -0.4888012409210205, 0.19861070811748505, 0.0386028066277504, 0.5113673210144043, -0.3572196662425995, -0.2625817358493805, 0.042027417570352554, -0.23235084116458893, 0.4918777644634247, 1.1154612302780151, 0.5550762414932251, -0.18793022632598877, 0.13905338943004608, 0.22449293732643127, -0.021369334310293198, 0.43100449442863464, 0.24206948280334473, -0.20756085216999054, 0.5437333583831787, 0.542713463306427, 2.3249671459198, 2.519906759262085, 0.016083505004644394, -0.022452881559729576, -0.8679981827735901, -0.38334429264068604, -1.1124897003173828, 0.006682119332253933, 0.36284804344177246, -0.4387587904930115, 0.15823598206043243, -0.05309812352061272, 0.3179683983325958, 0.2454514056444168, -0.06377818435430527, -0.1194208636879921, 0.5830544233322144, 1.0123025178909302, 0.19442221522331238, -0.15384039282798767, -0.06421463936567307, 0.24805325269699097, 0.18134407699108124, 0.6604620218276978, -0.06165453791618347, -0.6239736676216125, 0.12207558006048203, -0.33974355459213257, 0.9156624674797058, 1.804386854171753, 0.7291357517242432, 0.11860490590333939, -0.8162392973899841, -1.206087589263916, -0.9426360726356506, 0.3397543132305145, 0.20882005989551544, -0.3705839514732361, -0.28058314323425293, 0.20190884172916412, 0.15669509768486023, -0.34531715512275696, 0.21143341064453125, 0.045133236795663834, 0.6701636910438538, 1.0294172763824463, 0.1848161667585373, 0.1816067397594452, 0.07647043466567993, 0.16193649172782898, 0.17437072098255157, -0.43260887265205383, 0.1620643585920334, -1.0647709369659424, -1.3076229095458984, -1.3605057001113892, 1.153448462486267, 1.3085585832595825, 0.6928820013999939, -0.16645872592926025, 0.43863922357559204, -1.272739052772522, -1.0561985969543457, -0.7815186977386475, -0.5462605357170105, 0.2498743087053299, -0.16279295086860657, -0.08395079523324966, 0.08959154784679413, -0.4919828772544861, -0.15096619725227356, 0.1701110601425171, 0.7742156982421875, 0.7765728235244751, 0.38675644993782043, 0.0726834312081337, 0.12404985725879669, -0.5250758528709412, -0.6454930305480957, -0.6390770673751831, -0.4527808427810669, -0.2654804289340973, -1.205056071281433, -3.13254976272583, -0.3332386612892151, 0.5775333046913147, 0.03658013418316841, -0.3315192759037018, 0.45696043968200684, -0.6823424100875854, -1.5654138326644897, -1.3274091482162476, -0.9692577719688416, 0.4172249734401703, -0.10453993827104568, -0.1470857709646225, -0.062005940824747086, -0.06776507198810577, 0.28344449400901794, 0.22859711945056915, 0.8408201336860657, 0.2793627977371216, 0.2324138730764389, -0.09267361462116241, -0.3513736128807068, -0.5428487062454224, -0.2376164346933365, -0.36954718828201294, -0.03470681607723236, -0.2967785894870758, -0.7367234826087952, -1.0195043087005615, -1.1518347263336182, 0.7284094095230103, -0.6119381189346313, -0.26995849609375, 0.9431403279304504, 0.13116802275180817, -1.023328423500061, -1.1654367446899414, -0.9870507717132568, -0.7802206873893738, -0.28510022163391113, -0.17263293266296387, 0.09773623198270798, 0.1897406429052353, 0.5870763063430786, 0.40253710746765137, 0.37218597531318665, 0.09142312407493591, -0.34383073449134827, -0.15660294890403748, 0.015334315598011017, 0.19973257184028625, -0.2844492197036743, -0.502169668674469, 0.21898478269577026, 0.2241019755601883, -0.6321432590484619, -1.7202905416488647, -2.1172354221343994, -0.019416073337197304, -0.9198881983757019, -0.05407563969492912, 0.869800329208374, -0.1332605928182602, 0.6622057557106018, -0.7016353607177734, -0.5608879923820496, -1.1504038572311401, -1.4748338460922241, -1.7092946767807007, -0.8963831067085266, -0.11968313902616501, 0.30407747626304626, 0.29861992597579956, -0.2548461854457855, 0.2499307096004486, 0.0512332059442997, -0.009692784398794174, -0.2671829164028168, 0.22822913527488708, 0.3670791983604431, -0.029656274244189262, 0.7668622136116028, 0.43590202927589417, -0.8091307282447815, -2.2904088497161865, -0.7715247869491577, 0.6789060235023499, -0.294822633266449, 0.3908315598964691, 0.711868941783905, -0.20410601794719696, 1.017608880996704, -0.7723158001899719, -0.6326624751091003, -0.4776347577571869, -1.496968150138855, -2.1528360843658447, -2.341754674911499, -1.6525557041168213, -0.6069276332855225, -1.2428662776947021, -0.8325162529945374, 0.0016519662458449602, 0.3650266230106354, -0.0228203684091568, -0.2824498414993286, 0.15907147526741028, 0.4711286127567291, 0.5761247277259827, 0.29880937933921814, -0.47363147139549255, -1.481931447982788, -2.6443018913269043, -0.6152887344360352, 0.963510274887085, 0.757354736328125, -0.0738464891910553, -0.20914360880851746, -1.0041649341583252, 0.42190247774124146, -0.2789072096347809, 0.15942701697349548, 0.5591839551925659, 0.2083754688501358, -0.23757515847682953, -0.30145347118377686, -0.9575529098510742, -1.2024459838867188, -1.341861367225647, -0.7652527689933777, -0.7144008278846741, -0.5209649801254272, 0.03848477825522423, -0.19688692688941956, 0.16156861186027527, 0.36821451783180237, -0.2256605327129364, -0.05480791628360748, 0.042144328355789185, -0.6115317344665527, -0.7502384781837463, 0.09973152726888657, 0.1887853592634201, 0.6706715822219849, -0.04267187789082527, -0.17853999137878418, -0.6671899557113647, -0.5806110501289368, -0.3228365480899811, 0.23563049733638763, 0.3257162272930145, 0.12109580636024475, 0.6274458169937134, 0.41978660225868225, 0.08835811913013458, 0.0018145231297239661, -0.693428099155426, -0.6004667282104492, -0.3675477206707001, -0.6775766015052795, -0.054138828068971634, 0.11922119557857513, 0.12445302307605743, 0.5573197603225708, -0.847391664981842, 0.015390057116746902, -0.1400391012430191, -0.2115294337272644, -0.23123285174369812, -0.727252721786499, 0.27505335211753845, 0.04865604266524315, 0.14033468067646027, 0.08373714983463287, 0.3477328419685364, 0.13176389038562775, -0.05244798585772514, 0.34341752529144287, 0.5386891961097717, 0.2547288239002228, 0.2336193472146988, 0.4619060754776001, 0.7429402470588684, 0.23058174550533295, -0.5383199453353882, -0.4284784495830536, -0.27735137939453125, -0.35714489221572876, -0.1586994081735611, -0.23326869308948517, 0.0785190686583519, 0.009764624759554863, -0.024297337979078293, 0.39300665259361267, -0.46583476662635803, 0.013333753682672977, -0.09910010546445847, -1.3861640691757202, -0.39090976119041443, -0.07813218235969543, 0.16547340154647827, 0.05899069085717201, -0.2401667833328247, 0.22523732483386993, 0.16354894638061523, -0.3931851089000702, 0.044311460107564926, -0.33257216215133667, -0.1267939954996109, -0.03782610595226288, 0.08273648470640182, 0.16652850806713104, -0.2872498631477356, -0.27585569024086, -0.34699946641921997, -0.4853895306587219, -0.19097384810447693, -0.3009057641029358, 0.1086168959736824, -0.1206536814570427, -0.11828919500112534, -0.25327542424201965, -0.18389485776424408, 0.8014070987701416, -0.17333747446537018, -1.0262925624847412, 0.8339064717292786, -0.031076377257704735, 0.03763696178793907, 0.06580005586147308, -0.09314277023077011, 0.3147939443588257, 0.11221308261156082, 0.4132367968559265, -0.21882334351539612, -0.1749933660030365, 0.22977152466773987, -0.13800568878650665, -0.023049626499414444, -0.07598529756069183, 0.31527629494667053, 0.3590017259120941, 0.1556100994348526, 0.10994712263345718, -0.23042836785316467, -0.1115378886461258, 0.16002202033996582, 0.10284699499607086, 0.4958779215812683, 0.05054931715130806, 0.1943635791540146, 1.0865646600723267, 0.3378434181213379, -1.0863571166992188, 0.8326447010040283, 0.06995105743408203, 0.006900951731950045, -0.02241872251033783, -0.25716909766197205, 0.31729432940483093, -0.24049343168735504, -0.2118939459323883, -0.2954986095428467, 0.32984253764152527, -0.021970413625240326, 0.317109078168869, 0.5124337077140808, 0.17488375306129456, 0.35847532749176025, -0.027409790083765984, -0.7249934077262878, -0.15594182908535004, -0.14754123985767365, 0.02795693650841713, 0.4026735723018646, 0.5545060634613037, 0.5811964273452759, 0.3174988925457001, 0.3864845335483551, 1.0276530981063843, 0.055152323096990585, -1.386031985282898, -0.6140641570091248, 0.0024558736477047205, -0.012523098848760128, 0.029258765280246735, 0.2782919704914093, -1.052935242652893, -1.1944764852523804, -0.49145275354385376, -0.8304643034934998, 0.013188940472900867, -0.19097627699375153, 0.05076957121491432, 0.2623908817768097, -0.4662151336669922, 0.3253561556339264, 0.4146495461463928, 0.40162450075149536, 0.26630011200904846, 0.14234280586242676, -0.10285021364688873, -0.5110388994216919, 0.33656278252601624, 1.1869964599609375, 0.9827477931976318, 0.7576055526733398, 0.2078164964914322, -0.005873390939086676, -0.5067628026008606, -0.46070706844329834, -0.08129271119832993, -0.07059144228696823, 0.0797620639204979, -0.020030995830893517, 0.4679543077945709, 0.952467143535614, -0.43576523661613464, 0.08344174176454544, 0.9400461912155151, 0.2628176212310791, 0.5171977877616882, 0.5510531663894653, 0.1410185992717743, -0.16032229363918304, 0.25215378403663635, 0.4015319049358368, -0.061841417104005814, 0.4462850093841553, 0.44046550989151, 0.28598254919052124, -1.475005865097046, -0.47544950246810913, 0.726283073425293, 0.5482308268547058, 0.8164777755737305, -0.025007203221321106, 0.02726459689438343, -0.020946966484189034, -0.0826520100235939, 0.08111771196126938, -0.006318325642496347, -0.049612753093242645, 0.02614385448396206, -0.23023350536823273, -0.6774746775627136, -1.36203932762146, -1.4572309255599976, -1.0300401449203491, -0.07548322528600693, 0.16293717920780182, 0.4946875274181366, 0.49506422877311707, -0.5040568113327026, 0.47274765372276306, 0.6940259337425232, 0.20633059740066528, -0.22697453200817108, 0.17716000974178314, -0.9943027496337891, -0.6389241814613342, 0.21912781894207, 0.034963458776474, -0.702819287776947, 0.044316790997982025, 0.023954927921295166, 0.0554971881210804, -0.02153623104095459}, {0.04749397560954094, 0.08470392972230911, -0.05427993834018707, 0.05537411570549011, 0.014765219762921333, 0.008127261884510517, 0.0035736619029194117, 0.019819071516394615, 0.08569448441267014, 0.05838857963681221, -0.05156209319829941, 0.017512066289782524, 0.057304348796606064, 0.05248799920082092, 0.011330237612128258, 0.004185510333627462, -0.06694718450307846, 0.018970249220728874, -0.07787471264600754, 0.056046951562166214, -0.05821419134736061, -0.019168786704540253, -0.03788037225604057, 0.020778166130185127, -0.01505679078400135, -0.08458902686834335, -0.0013444137293845415, 0.06849339604377747, 0.06678962707519531, 0.08194970339536667, -0.049317918717861176, -0.013928616419434547, 0.08540687710046768, 0.022937264293432236, -0.08213330060243607, -0.0015350950416177511, -0.13034851849079132, -0.1490163952112198, -0.2133735567331314, 0.09699588268995285, 0.6951574087142944, 0.6148135662078857, -0.6833261251449585, -0.5853747725486755, -0.15439514815807343, 0.3489602506160736, 0.4694514274597168, 1.0047553777694702, 0.9302312135696411, 0.40987539291381836, 0.1916831135749817, 0.18956951797008514, 0.019091777503490448, 0.029025502502918243, 0.042989376932382584, 0.006943339016288519, -0.04325844720005989, 0.07088721543550491, -0.0547909289598465, 0.3773486316204071, 0.5581446290016174, 0.2446432113647461, 0.23889636993408203, 0.7888246774673462, 1.520923376083374, 1.8263441324234009, 1.7877144813537598, 0.9362764358520508, 0.8819833397865295, 0.5297751426696777, 1.0401968955993652, 0.046603329479694366, 0.00326745817437768, -0.03117566555738449, 0.134819895029068, 0.11702533811330795, 0.08431600779294968, 0.968691349029541, 0.6581445932388306, 0.11248984932899475, 1.1518996953964233, 0.1279444396495819, 0.05000206083059311, 0.05833395570516586, -0.009444596245884895, 0.01502299215644598, 0.09809671342372894, 0.6871132254600525, 0.689601480960846, -0.08721573650836945, 0.23825432360172272, 0.4349178671836853, 0.8677707314491272, 0.745793879032135, 0.44371914863586426, 0.7499886155128479, 0.45036643743515015, 0.43693599104881287, -0.1922120749950409, -0.26285767555236816, -0.06270836293697357, 0.07182728499174118, -0.0050089238211512566, 0.6575728058815002, -0.024193329736590385, 0.1319991797208786, 0.4274454712867737, 0.6986055374145508, -0.03655146807432175, 0.8636780977249146, 0.18086913228034973, -0.05808557569980621, -0.006019592750817537, 0.005619763862341642, 0.11358307301998138, -0.24087099730968475, 0.6687418818473816, -0.04549284279346466, 0.8911033272743225, 0.6351556777954102, -0.6390464901924133, -0.5783938765525818, -0.012094986625015736, -0.055811986327171326, -0.26784053444862366, -0.22201715409755707, 0.11346422880887985, -0.11020851135253906, -0.1797516793012619, -0.19721458852291107, -0.506895124912262, -0.12638936936855316, -0.07384641468524933, -0.6015681624412537, -0.3979603946208954, -0.18609879910945892, -0.4971141517162323, -0.34699127078056335, -1.2500956058502197, 0.5465811491012573, 0.03887325897812843, -0.07934022694826126, 0.9383564591407776, 0.008251355960965157, 0.06961812824010849, -0.4771501421928406, 0.05305499956011772, -0.10175774246454239, 0.14253027737140656, -0.024110829457640648, -0.5009894967079163, -0.23176854848861694, 0.12138744443655014, -0.052508361637592316, 0.319572389125824, 0.21291618049144745, -0.6180276274681091, -0.1121615543961525, 0.005815866403281689, -0.24906665086746216, -0.2533486783504486, 0.23646928369998932, -0.09712433815002441, 0.005916080437600613, -0.3206883370876312, -0.5745686292648315, -1.3596395254135132, 0.10867425054311752, -0.08090135455131531, -0.10832015424966812, -0.9623368382453918, -0.662897527217865, -1.3729127645492554, -1.1140060424804688, -0.2658263146877289, -0.508575975894928, -0.6856142282485962, -0.5370153784751892, -0.28623178601264954, -0.47708338499069214, -0.06730387359857559, -0.42559826374053955, -0.1848611980676651, 0.6357676982879639, -0.18700245022773743, -0.108421690762043, 0.16312210261821747, 0.017183752730488777, -0.22559112310409546, 0.3899945914745331, -0.36107200384140015, 0.2968912720680237, -0.7451587915420532, -0.030430151149630547, -0.7526113986968994, -1.0180102586746216, -0.001025807810947299, -0.8637096881866455, -0.05673138424754143, -1.169876217842102, 0.22807161509990692, -0.05363523215055466, -0.20527124404907227, -0.31543421745300293, -0.040759265422821045, 0.19350415468215942, -0.22383132576942444, 0.039892710745334625, -0.46109017729759216, -0.1468658596277237, -0.06608180701732635, 0.07068943232297897, -0.05478907749056816, -0.1329851597547531, 0.033176206052303314, 0.2866922914981842, -0.27627938985824585, 0.19390933215618134, -0.6739316582679749, -0.14652983844280243, -0.363727331161499, 0.12325185537338257, 0.1946047842502594, -1.4301152229309082, -0.044920146465301514, -0.9715979695320129, 0.7009851932525635, -1.49599289894104, 0.6286953687667847, 0.387991726398468, 0.0503513403236866, 0.15823543071746826, -0.37010154128074646, -0.17706072330474854, 0.02970854565501213, -0.22169549763202667, -0.2914532721042633, -0.21925702691078186, -0.50215744972229, -0.2557695209980011, 0.10546974092721939, 0.009010612033307552, -0.121121346950531, 0.22837650775909424, -0.38495519757270813, 0.08358558267354965, -0.1347755342721939, 0.3702195882797241, -0.31286436319351196, -0.10350537300109863, 0.9085906147956848, 0.5756583213806152, 0.06307661533355713, -0.9118894934654236, -0.7074174880981445, -1.1846843957901, 0.08825557678937912, 0.4147256016731262, 0.1349489390850067, -0.10705859214067459, -0.12221615761518478, 0.18438629806041718, 0.26926180720329285, -0.19845351576805115, -0.2846774756908417, 0.5371674299240112, -0.5083860158920288, -0.8215521574020386, -0.4085046052932739, 0.13413821160793304, -0.03217114508152008, 0.1567167192697525, -0.25588151812553406, -0.3497796654701233, -0.3091951906681061, 0.7596950531005859, -0.8096437454223633, -0.6198814511299133, -0.663850724697113, -0.1068643108010292, -0.028766144067049026, -0.9329021573066711, -1.4946209192276, -0.8767427206039429, -0.6185084581375122, -0.2105932980775833, -0.2728775143623352, -0.5752996802330017, -0.25246909260749817, 0.17030565440654755, 0.028914546594023705, 0.14838474988937378, 0.017322462052106857, -0.05954378843307495, -0.06699354201555252, -0.6309987902641296, -0.6813596487045288, -0.02088385820388794, -0.020243147388100624, -0.005691558122634888, -0.560173749923706, -0.31515586376190186, -0.41582217812538147, -0.7959372997283936, -1.7075111865997314, -2.2687289714813232, -1.4656363725662231, -0.8699250221252441, -0.10098619759082794, 0.1270175725221634, -0.9190122485160828, -0.5560683012008667, -0.332866370677948, -0.07777807861566544, -0.6437289118766785, 0.12499812245368958, 0.2224653959274292, -0.17097313702106476, 0.15786656737327576, 0.0604056678712368, 0.07452508062124252, -0.3315964639186859, -0.08804232627153397, -1.143553376197815, -0.9007388949394226, -0.2671299874782562, 0.11306697130203247, 0.1459808349609375, -0.21814686059951782, 0.8081401586532593, 0.8021485805511475, -0.40059560537338257, -1.1147103309631348, -2.3983612060546875, -1.7195467948913574, -0.5375878810882568, -0.17232108116149902, 0.016772696748375893, -0.3686557710170746, 0.4680294692516327, -0.17228469252586365, -0.09074456989765167, 0.02922847494482994, 0.05918142572045326, 0.15716885030269623, -0.261329710483551, -0.2521725594997406, -0.28916287422180176, -0.020376691594719887, -0.18407468497753143, -0.13176392018795013, -0.30204129219055176, -0.3131357431411743, 0.2688536047935486, 0.22496919333934784, 0.5582504868507385, 0.28632354736328125, 0.9865186810493469, 1.804386019706726, 2.768270969390869, 3.0280814170837402, 0.7275380492210388, -0.9225390553474426, 0.007693097926676273, 0.13508597016334534, 0.022854087874293327, -0.4013424217700958, -0.1747921258211136, -0.27788275480270386, -0.5942540168762207, 0.303912878036499, 0.5555596947669983, 0.07106152176856995, -0.5197533965110779, -0.05757574364542961, 0.03725169599056244, -0.1336154192686081, -0.04549003764986992, 0.057333625853061676, -0.09300534427165985, -0.49871426820755005, -0.007917044684290886, 0.11755982786417007, -0.09521984308958054, 0.4154805541038513, -0.04283473640680313, 0.522476851940155, 1.541191577911377, 3.365825891494751, 2.264413595199585, 1.3729103803634644, 0.06714791804552078, -0.4783172607421875, -0.20725496113300323, -0.14840252697467804, -0.7814198136329651, -0.7348135113716125, -0.006097836885601282, 0.5065343379974365, 0.45945900678634644, 0.3852137625217438, -0.0014082733541727066, 0.13983964920043945, 0.4219229817390442, -0.023364126682281494, 0.1716834455728531, -0.17742861807346344, -0.015532570891082287, 0.08819019049406052, -0.07822180539369583, -0.08544984459877014, 0.0376921184360981, -0.22550255060195923, -0.05561210960149765, 0.12236066907644272, -0.3767499625682831, 0.5028277635574341, 1.2489084005355835, 0.8736936450004578, 0.24664030969142914, -0.541835367679596, -0.2505161762237549, 0.12355348467826843, -0.6703904867172241, 0.5443212389945984, 0.7819863557815552, 0.4473544955253601, 0.933989942073822, 0.9498365521430969, 0.07399852573871613, 0.3531357944011688, 0.09759822487831116, 0.07840471714735031, 0.17221888899803162, -0.1790621280670166, 0.037388019263744354, -0.1501903086900711, 0.13665923476219177, -0.04973722621798515, -0.39231982827186584, -0.6338386535644531, -0.10173283517360687, 0.01744496077299118, -0.61923748254776, -1.1606553792953491, 1.9798651933670044, 1.507439136505127, 0.5243277549743652, -0.062171224504709244, -0.656507670879364, -0.049210820347070694, -1.075234293937683, 0.1649942845106125, 0.578831672668457, 0.9925358295440674, 1.2670917510986328, 1.5372865200042725, 1.3681111335754395, 1.1709725856781006, 0.8197460174560547, 0.43604013323783875, -0.07102356106042862, -0.09031619131565094, -0.10431330651044846, 0.06013544276356697, -0.04697570204734802, -0.07592105865478516, -0.269175261259079, -0.21111582219600677, -0.4228305220603943, -0.48924142122268677, 0.0007631996995769441, -0.48238492012023926, 4.128093242645264, 2.5092780590057373, 0.6137765049934387, 0.002389543456956744, -0.9915471076965332, -0.4044702351093292, -1.1753032207489014, 0.5022389888763428, -0.14812278747558594, -0.17185933887958527, 0.35492223501205444, 0.8369943499565125, 1.4516631364822388, 1.4349894523620605, 1.5826644897460938, 1.3310258388519287, 0.34744521975517273, 0.03582215681672096, -0.016015224158763885, 0.0456576831638813, -0.39866361021995544, -0.5152193903923035, 0.3724437654018402, 0.4508292078971863, -0.11569013446569443, -0.09941457957029343, -0.22092244029045105, -0.6939502954483032, 2.1049253940582275, 1.1423231363296509, 0.9519683718681335, 0.142762690782547, -0.5056251287460327, -0.7738336324691772, -0.9838606119155884, 0.2336205095052719, 0.025341257452964783, -0.4419732391834259, -0.4965893626213074, -0.013740630820393562, -0.12577314674854279, 0.621294379234314, 1.1154420375823975, 0.8435004949569702, -1.0054402351379395, -0.4121180474758148, 0.34496772289276123, 0.23887021839618683, -0.3750975728034973, -0.22408302128314972, 0.012995228171348572, -0.15789324045181274, -0.1534331887960434, 0.07664891332387924, 0.0013855569995939732, 0.19363726675510406, 2.506159543991089, 0.7108616232872009, -0.4837099313735962, -0.04662425071001053, -0.38381651043891907, -0.5550798177719116, -1.4782010316848755, 0.1098070740699768, 0.03395966440439224, -0.06971944868564606, -0.3580894470214844, -0.3204224407672882, -0.21522651612758636, -0.1914309412240982, 0.6407303214073181, 0.168694406747818, -0.5787559151649475, -0.04879533872008324, 0.3449443578720093, -0.09005776047706604, 0.4401194155216217, -0.1359533816576004, 0.0694650337100029, -0.24307134747505188, 0.07642737030982971, -0.09683670103549957, -0.020101044327020645, -0.10229969769716263, 0.4210786819458008, 1.644111156463623, -0.5543043613433838, 0.023847302421927452, 0.15719017386436462, -0.27927660942077637, -0.48831021785736084, -0.39104458689689636, 0.3602439761161804, -0.04643251746892929, 0.222455233335495, 0.38942015171051025, 0.21934735774993896, 0.5895575284957886, 0.12396467477083206, 0.20433302223682404, -0.13140888512134552, 0.08178231120109558, 0.4991544485092163, -0.005735011305660009, 0.29812243580818176, 0.1854277402162552, 0.34035563468933105, 0.11590758711099625, 0.560868501663208, 0.15101569890975952, -0.21133552491664886, -0.19967412948608398, 1.1809824705123901, 0.7508723735809326, -0.3369942307472229, 0.1694432944059372, 0.4429381787776947, 0.2653733789920807, 0.11310118436813354, -0.6006600260734558, -0.38809582591056824, -0.19590148329734802, -0.13664186000823975, -0.3125956356525421, 0.2534518837928772, 0.3286154270172119, 0.41504374146461487, -0.09523246437311172, -0.1533818244934082, -0.37619608640670776, -0.14005078375339508, -0.05774194002151489, -0.1837768852710724, 0.20176434516906738, 0.2490144520998001, -0.11742207407951355, -0.12411566823720932, 0.017385238781571388, -0.17485389113426208, 0.8115170001983643, 1.6360620260238647, 0.6331808567047119, -0.026243988424539566, 0.22397403419017792, 0.03604792430996895, 0.11449535191059113, 1.0936120748519897, 0.41616320610046387, 0.12363415211439133, 0.24927394092082977, 0.8240936994552612, 0.6852373480796814, 0.31745874881744385, 0.25832831859588623, 0.2574668824672699, 0.11591885983943939, 0.1969834268093109, -0.20126450061798096, -0.25981003046035767, -0.13060496747493744, -0.20278127491474152, 0.37832900881767273, -0.16667185723781586, 0.5096165537834167, 0.25286489725112915, -0.15716056525707245, -0.24388286471366882, 1.6360061168670654, 1.6224819421768188, -0.18215377628803253, 0.08039002120494843, -0.07921957224607468, 0.026802007108926773, -0.5088632106781006, -0.14304806292057037, -0.346094012260437, 0.3333675265312195, -0.15074202418327332, 0.23223130404949188, 0.06258093565702438, 0.14504295587539673, 0.020556358620524406, -0.0643705278635025, 0.330584853887558, 0.3745494782924652, -0.09627152979373932, -0.25129109621047974, -0.19810950756072998, -0.07905592024326324, 0.5127109289169312, 0.517545759677887, 0.18327970802783966, 0.49258244037628174, 0.43716877698898315, 1.036828875541687, 1.2948906421661377, 1.2291337251663208, -0.49524781107902527, 0.053410615772008896, 0.04735656827688217, 0.06444869935512543, -0.9702341556549072, -2.013247489929199, -1.0657389163970947, -0.8355329036712646, -0.42756250500679016, -0.15664397180080414, 0.2788325548171997, 0.19698621332645416, 0.23522759974002838, 0.11081862449645996, 0.3247315287590027, 0.252339631319046, 0.022653916850686073, -0.21802228689193726, 0.05879618227481842, -0.11501128226518631, 0.3224796652793884, 0.7464687824249268, 0.527493417263031, 0.5420580506324768, 0.02736867405474186, 0.4920292794704437, 1.0086115598678589, 1.128832459449768, 0.29904383420944214, -0.060478780418634415, -0.03235918655991554, 0.05583001300692558, 0.17101101577281952, -0.35105404257774353, -1.753904938697815, -1.9079878330230713, -1.5802927017211914, -2.1044907569885254, -0.793046772480011, -0.9906232357025146, -0.9397517442703247, -0.3721500039100647, -0.5497427582740784, -0.44419050216674805, -0.8884474635124207, -0.900810182094574, -1.0988847017288208, -1.0709059238433838, -1.2995506525039673, -0.8361256122589111, -0.23354472219944, -0.678152859210968, -0.5020352005958557, -0.6798516511917114, -0.6594319343566895, 0.0017852202290669084, 0.044572655111551285, -0.0010729091009125113, -0.049338944256305695, 0.007081920746713877, 0.0752524733543396, 0.5946291089057922, 1.2037113904953003, -0.228464275598526, 0.03102809563279152, -0.08068407326936722, -0.06634920835494995, -0.7522954940795898, -0.5801792740821838, -0.5087401270866394, -0.09727870672941208, -0.2889387607574463, 0.2469741553068161, -1.3354411125183105, -1.558477520942688, -1.3701746463775635, -0.6139007806777954, -1.2927850484848022, -0.8373017311096191, -0.778222918510437, -0.6870201826095581, -0.567851185798645, 0.005484441760927439, 0.05556356906890869, 0.04358468949794769, 0.07166347652673721, 0.012218342162668705, -0.05693141743540764, -0.014324069023132324, 0.03782479837536812, -0.1316727101802826, -0.12389767169952393, -0.2209833562374115, -0.5524121522903442, -0.5354251861572266, -0.12420172989368439, 0.0001239496486959979, 0.6303391456604004, -0.08414986729621887, -1.4412262439727783, -1.0921977758407593, -0.6095143556594849, 0.00482220808044076, -0.3641197085380554, 0.19465844333171844, -0.17631036043167114, 0.006125868763774633, 0.09511074423789978, -0.31242460012435913, -1.1103724241256714, -0.05578483268618584, 0.055743537843227386, 0.011220753192901611, -0.03771837800741196}, {-0.07584036886692047, 0.03331678733229637, 0.035941850394010544, 0.006114402320235968, -0.08063507080078125, -0.06390074640512466, -0.06724822521209717, 0.004116825759410858, -0.02605319954454899, -0.00865897350013256, -0.03591304272413254, 0.0763203427195549, 0.031826142221689224, 0.1894533783197403, 0.21445660293102264, -0.0023691717069596052, -0.031669050455093384, -0.019338112324476242, -0.06648730486631393, -0.03838133439421654, -0.03436298668384552, -0.01025970745831728, -0.06120631471276283, 0.012209423817694187, 0.07503204047679901, 0.051249463111162186, -0.05636442452669144, 0.03124992735683918, 0.02703690715134144, 0.018476177006959915, 0.04678100720047951, -0.06025056913495064, 0.08560221642255783, -0.083969846367836, -0.5938878059387207, -0.04279698431491852, 0.18200595676898956, 0.20894542336463928, 0.20762033760547638, -1.1377077102661133, -0.8373372554779053, -0.7509830594062805, -1.0908693075180054, -0.17393256723880768, 0.47442182898521423, 0.12978605926036835, -1.0174049139022827, -1.1640632152557373, -1.3019953966140747, -0.7028498649597168, 0.13792464137077332, 0.16888678073883057, -0.04854967072606087, -0.01254784595221281, 0.08386403322219849, -0.0038121354300528765, -0.040201783180236816, 0.07120773196220398, -0.04306558147072792, 0.4603515565395355, -0.1638670116662979, -0.5312047004699707, -0.49730977416038513, -0.38713327050209045, -0.062141627073287964, -0.3972014784812927, -0.1574278324842453, -0.23426340520381927, -0.21002435684204102, 0.4961305856704712, 0.6231640577316284, 0.5352280735969543, 0.46146970987319946, 0.4782169759273529, 0.16332069039344788, -0.8470355868339539, -0.8668365478515625, -1.6029350757598877, -1.5677367448806763, -0.04597676172852516, 0.3398221731185913, 0.5844990611076355, -0.07711845636367798, -0.0037840267177671194, -0.020269382745027542, 0.06448378413915634, 0.1371954083442688, 0.578971266746521, -0.3930773437023163, -0.42563125491142273, 0.3101029098033905, 0.12410467863082886, 0.7567856311798096, -0.008897654712200165, 0.3885501027107239, -0.06107940152287483, 0.21046887338161469, 1.0186245441436768, 1.1300029754638672, 0.39360368251800537, 0.272837370634079, 0.3451543152332306, 0.5292156338691711, -0.1958133429288864, -0.37544915080070496, -0.7851150035858154, -0.8578996658325195, -0.6973087191581726, 0.4541049003601074, 0.9617377519607544, 0.603413999080658, -0.009989922866225243, -0.004799549467861652, -0.1997077465057373, -0.22446177899837494, 0.023763252422213554, -0.39757800102233887, 0.2341528832912445, 0.5819714665412903, 0.6423727869987488, 0.06252200901508331, -0.1510041058063507, 0.3835349977016449, 0.4918135404586792, 0.28810515999794006, 0.6412497758865356, 0.3545845150947571, 0.5236894488334656, -0.36996951699256897, -0.14550137519836426, 0.44649338722229004, -0.2246086746454239, -0.4859611392021179, -0.3626925051212311, -0.849074125289917, -0.6503816843032837, 0.21803303062915802, 1.1502166986465454, 1.3919235467910767, 0.3059108257293701, 0.001459489925764501, 0.03275864198803902, 0.11662331968545914, 1.3542094230651855, -0.13583388924598694, -0.16541339457035065, -0.3371419608592987, -0.17040348052978516, 0.38204053044319153, 0.0339847058057785, 0.8658831119537354, 0.3046706020832062, -0.11671975255012512, 0.40856051445007324, -0.035149600356817245, 0.007012189365923405, 0.39219436049461365, 0.03164427727460861, 0.022874193266034126, -0.15657489001750946, -0.3845413327217102, 0.19882170855998993, -0.0511472187936306, -0.12937219440937042, -0.29380688071250916, 0.7465251088142395, 1.7068109512329102, 0.15826383233070374, 0.0020625372417271137, 0.24917513132095337, -0.014352242462337017, 0.5914568901062012, 0.07054945826530457, -0.1384195238351822, 0.014472453854978085, -0.7566149234771729, -0.22060944139957428, 0.11979429423809052, 0.1403442770242691, 0.1415134221315384, 0.20784063637256622, 0.3015243113040924, 0.19129301607608795, 0.19521155953407288, 0.45068347454071045, 0.3175760805606842, 0.445061057806015, 0.32732102274894714, 0.6460170745849609, -0.23600532114505768, -0.19727231562137604, -0.5600401163101196, 0.6806055307388306, 0.3706304132938385, 1.221989393234253, 0.8585242629051208, -0.06185436248779297, 0.34258711338043213, -0.415616512298584, 0.045646946877241135, -0.17201612889766693, 0.25579559803009033, 0.47948744893074036, -0.09497781097888947, 0.26778703927993774, 0.05183999612927437, -0.10497666895389557, 0.25981929898262024, 0.35414478182792664, 0.0007068748236633837, 0.5619413256645203, 0.08720433712005615, 0.14655262231826782, 0.1735570728778839, -0.00598751800134778, -0.044975101947784424, -0.03140867128968239, -0.13668541610240936, 0.040688686072826385, -0.1602362096309662, 0.22452029585838318, 1.0922077894210815, 0.9373881816864014, 1.152388572692871, -0.0775209590792656, -1.3897008895874023, -0.26974403858184814, -0.20787999033927917, -0.2701587378978729, 0.047424182295799255, -0.04115201160311699, -0.401144802570343, -0.056154653429985046, 0.16493017971515656, 0.16283690929412842, 0.059164274483919144, 0.14853647351264954, -0.15760064125061035, 0.34808504581451416, 0.14616172015666962, 0.01892106980085373, 0.12677811086177826, 0.1374497264623642, 0.2265043556690216, 0.2529986500740051, 0.10685954988002777, 0.9371790289878845, 0.7649911642074585, 0.2736978828907013, 0.4225893020629883, 0.3465498983860016, -0.34772244095802307, 0.016753681004047394, -2.1399083137512207, -0.08708848059177399, 0.07456449419260025, 0.25852668285369873, 0.07670668512582779, -0.1170649603009224, -0.009834918193519115, -0.1583816558122635, 0.11721566319465637, 0.032085057348012924, 0.17221419513225555, 0.3936181962490082, 0.36009302735328674, 0.3562767803668976, 0.3879615366458893, 0.48188507556915283, 0.252812922000885, 0.41039273142814636, 0.3340822458267212, 0.3338284194469452, 0.43955308198928833, 0.5469490885734558, 0.8279868364334106, 1.1133180856704712, 0.9245288372039795, 0.24710266292095184, 0.3710327446460724, 0.06867867708206177, -2.4514896869659424, -0.05071472376585007, 0.7696743011474609, -0.317522794008255, 0.3759032189846039, 0.81145179271698, 0.35049566626548767, 0.3773912787437439, 0.3177536725997925, 0.01279233768582344, 0.20582081377506256, -0.36672133207321167, -0.2687549293041229, 0.04435311257839203, 0.16919870674610138, -0.10808292776346207, 0.09053422510623932, -0.1392025500535965, -0.3551083207130432, 0.1667572557926178, 0.14034339785575867, -0.023101191967725754, -0.05570454150438309, 0.6563945412635803, 1.7881159782409668, 2.638824701309204, 0.8260445594787598, -0.3276275396347046, -1.6699151992797852, -0.23205336928367615, -0.686464786529541, 0.234517440199852, 0.43153828382492065, 0.5219512581825256, -0.3166346848011017, -0.3897826671600342, -0.38948801159858704, -0.4945475459098816, -0.5192679166793823, -0.7458212375640869, -0.7176861763000488, -0.747895359992981, -0.5069630146026611, -0.3886258900165558, -0.20558960735797882, -0.40139979124069214, -0.5329488515853882, -0.490156888961792, -0.6972675323486328, -0.3387952744960785, -0.2287953943014145, -0.9096157550811768, -0.339146226644516, 1.3290152549743652, -0.32077333331108093, -0.5117829442024231, 0.20039477944374084, -0.5316857099533081, -1.1761139631271362, -0.1782560646533966, -0.0039653354324400425, -1.0869418382644653, -1.078717589378357, -0.4138045012950897, -0.7751922607421875, -0.3993348181247711, -0.587507963180542, -0.7066280245780945, -0.651179313659668, -0.6078939437866211, -0.2179221212863922, -0.37821659445762634, -0.6666185259819031, -0.1762702316045761, -0.5072237253189087, -0.40499329566955566, -1.2013734579086304, -1.8489125967025757, -1.7559475898742676, -2.2741498947143555, -1.3184837102890015, -0.43730151653289795, -0.7465029358863831, -0.10134179145097733, 0.4650423526763916, -0.8753207921981812, -1.3259994983673096, -0.9285975098609924, -0.6369732618331909, -1.226733684539795, -0.6559206247329712, -0.7267020344734192, -0.6484016180038452, -0.0905240923166275, 0.4326249957084656, 0.1529775857925415, 0.22247183322906494, 0.17248235642910004, -0.5494663119316101, -0.2182316780090332, -0.5258645415306091, 0.04881971329450607, -0.26901671290397644, -0.4333121180534363, -0.949820339679718, -1.3033373355865479, -1.895447015762329, -1.3605735301971436, -1.5527533292770386, -0.8260383009910583, -0.6500605940818787, 0.6177701354026794, -0.3418516218662262, -0.7004477381706238, -1.4429770708084106, -0.9273571968078613, -0.4113366901874542, -0.5439689755439758, -0.1932777315378189, -0.48733794689178467, 0.007471009623259306, 0.3753298819065094, -0.3282214403152466, -0.26826250553131104, -0.0787557065486908, -0.19391250610351562, -0.22433270514011383, -0.26719987392425537, -0.13992273807525635, -0.2756601572036743, -0.3128129541873932, -0.42035987973213196, -0.9356124997138977, -0.8525915741920471, -0.741402804851532, -0.06334643065929413, 0.10660792887210846, 0.41951560974121094, 0.06534458696842194, 0.5620937347412109, -0.09887196868658066, 0.2643736004829407, -0.9635472297668457, 0.08869729191064835, 0.48622581362724304, 0.3407144844532013, -1.1292469501495361, 0.36028119921684265, -0.05499713122844696, 0.20384377241134644, -0.22967088222503662, -0.020591525360941887, 0.04939793795347214, -0.49608975648880005, 0.09270443022251129, 0.0030928417108953, -0.4186471402645111, -0.30377498269081116, 0.33507394790649414, 0.05431037023663521, -0.29953140020370483, -0.3659208118915558, 0.6295071244239807, 1.0976852178573608, 1.0694146156311035, 1.56683349609375, 0.6715001463890076, -0.2876749038696289, -0.09018328785896301, 1.311215877532959, 0.29437097907066345, 0.7317723035812378, 0.6064803004264832, 0.2529962658882141, -1.216784954071045, -1.2439839839935303, -0.9608146548271179, -0.18904633820056915, -0.5144149661064148, 0.045576587319374084, 0.2300223708152771, -0.2170291244983673, -0.19606547057628632, -0.47385117411613464, 0.05144323781132698, 0.2164081186056137, 0.2676980495452881, 0.05489273741841316, 0.2806990146636963, 0.8868498802185059, 0.7957558631896973, 1.3442680835723877, 1.5486621856689453, 2.1358628273010254, 0.8964818120002747, -0.07012708485126495, -0.3480563759803772, 1.1654009819030762, 0.7899013757705688, 1.4737141132354736, 1.1014682054519653, 0.6373717784881592, -0.07128439098596573, -0.6965590715408325, -0.7321171164512634, -0.23410676419734955, -0.2772075831890106, -0.21252299845218658, -0.5228578448295593, -0.3573102653026581, -0.08830646425485611, -0.18585072457790375, 0.2839454710483551, 0.3880976736545563, 0.09243785589933395, -0.32742342352867126, 0.49792468547821045, 0.7021343111991882, 0.2052222043275833, 0.5526736378669739, 0.31419137120246887, 1.533998966217041, 1.396560788154602, -0.04575379192829132, -0.05810525268316269, 0.3383128345012665, 1.6453807353973389, 1.8157308101654053, 0.8000237345695496, 1.059322476387024, 0.5545192956924438, -0.21911188960075378, -0.42157813906669617, -0.20134222507476807, -0.8823966979980469, -0.3707628548145294, -0.3849869668483734, 0.2960085868835449, 0.06223304569721222, 0.12477434426546097, 0.31198179721832275, 0.09629520773887634, 0.31651240587234497, -0.6744673848152161, 0.421083003282547, 0.9378715753555298, 0.8880795240402222, 1.5050773620605469, 0.4448240399360657, 0.27058371901512146, 0.5297858119010925, -0.05148381367325783, -0.14665916562080383, -0.0700502023100853, 0.7644948959350586, 1.2300286293029785, 0.40294772386550903, 0.7832489609718323, 0.5065959692001343, 1.0923007726669312, 0.4835100769996643, 0.24590939283370972, 0.2949952185153961, -0.2195013463497162, 0.19766736030578613, 0.09703667461872101, 0.13923169672489166, -0.28422316908836365, -0.08947507292032242, 0.035269204527139664, 0.04930374026298523, -0.09015439450740814, 0.0479854978621006, 0.8533328771591187, 1.6513450145721436, 0.8930010795593262, 0.6928918361663818, 0.1696695238351822, -0.8121273517608643, 0.03851078823208809, -0.188309907913208, -0.14842326939105988, 0.7394418716430664, 0.4256187081336975, 0.32914578914642334, 1.047350525856018, 0.6167533993721008, 0.8511388897895813, 0.6753910183906555, 0.40899041295051575, 0.842410147190094, 0.2961220443248749, 0.35735252499580383, -0.34240761399269104, 0.09286419302225113, 0.2958211898803711, -0.08502167463302612, -0.20195692777633667, 0.36788493394851685, 0.24315404891967773, -0.2656346559524536, 1.0142046213150024, 1.5008903741836548, 0.8757627606391907, 0.7056359648704529, -0.27383771538734436, 0.32909339666366577, -0.02744402550160885, -0.07384969294071198, -0.29876160621643066, 0.14004836976528168, 0.5940256118774414, -0.0825965404510498, 0.28050535917282104, 0.3414960205554962, 0.42326998710632324, 0.36127763986587524, 0.19391050934791565, -0.07185851782560349, -0.04569897800683975, -0.0994819700717926, -0.08414670079946518, 0.028841190040111542, 0.15086416900157928, 0.09957583993673325, -0.04158704727888107, 0.08062822371721268, 0.43834590911865234, 0.6931806802749634, 0.729255199432373, 1.636621117591858, 0.3290947377681732, -0.40540972352027893, 0.08410904556512833, -0.12509967386722565, -0.0903974398970604, -0.08698265999555588, -0.22837385535240173, -0.3704136610031128, 0.1963525265455246, -0.297364205121994, -0.6705085635185242, -0.0210359375923872, -0.10862857103347778, 0.02911466546356678, -0.40021803975105286, -0.09991953521966934, 0.13797351717948914, -0.07231346517801285, 0.0034238065127283335, -0.10971717536449432, -0.000798376917373389, -0.1481599360704422, 0.12292896956205368, -0.2200482040643692, 0.7774550914764404, 1.3400813341140747, 0.41696304082870483, 0.6198352575302124, -0.4947516918182373, -0.19043031334877014, -0.33608999848365784, -0.046829819679260254, 0.08358991891145706, -0.012460882775485516, 1.6080288887023926, 0.5242892503738403, 0.4715455174446106, -0.14601942896842957, -0.18774937093257904, -0.01692407950758934, -0.3692183196544647, 0.20144754648208618, -0.0066874269396066666, 0.1996336430311203, -0.23846222460269928, -0.12267409265041351, -0.2377699613571167, -0.1677032858133316, -0.23394308984279633, 0.04657537490129471, 0.15668004751205444, 0.07829555124044418, 0.697742223739624, 0.20818674564361572, -0.14196956157684326, -0.003999537322670221, 0.16879887878894806, 0.6197240352630615, 0.43478256464004517, 0.08479996770620346, 0.06402944028377533, -0.04166462644934654, -0.18597577512264252, 0.3486320674419403, -0.09758912026882172, -1.3223193883895874, -0.7434494495391846, 0.022434037178754807, -0.35601991415023804, 0.09217983484268188, -0.5692245960235596, 0.3629074692726135, -0.03625175356864929, 0.317437082529068, 0.42876964807510376, 0.5961632132530212, 0.18502146005630493, 0.17137014865875244, 0.6760648488998413, 0.4413449168205261, 0.06444624066352844, -0.0779758021235466, -0.9759666919708252, -0.38001251220703125, 0.7004368901252747, 1.2663605213165283, 0.7677572965621948, -0.0077878255397081375, -0.001611031824722886, -0.05737634375691414, 0.20460110902786255, 0.4878115952014923, 0.790202796459198, -0.13253989815711975, 0.38584160804748535, 0.43281617760658264, -0.09608311951160431, 0.6139412522315979, 0.2546955645084381, 0.1765209585428238, 0.3616952896118164, 0.40798813104629517, -0.21187610924243927, 0.3840111792087555, 0.5494543313980103, 0.6751160621643066, 0.6741579174995422, 0.587838888168335, -0.7876281142234802, -1.3010486364364624, -0.8071087002754211, 0.12333604693412781, 0.7640716433525085, 0.5858634114265442, 0.6896543502807617, -0.07949808239936829, -0.016615482047200203, 0.07979759573936462, -0.027149073779582977, 0.024445557966828346, 1.364363670349121, 1.1041929721832275, 1.0748950242996216, 0.8741363286972046, 0.21670588850975037, -0.30944347381591797, 0.38343027234077454, 0.6416006088256836, 0.4447318911552429, 0.6443634033203125, 0.46379417181015015, 0.3998025953769684, 0.7894729971885681, 0.20950345695018768, -0.11483696848154068, 0.7350125312805176, -0.2453044056892395, -0.663533627986908, -0.3190338611602783, -0.42334869503974915, -0.02178339846432209, -0.026196060702204704, 0.04739959537982941, -0.08422379195690155, 0.007684020325541496, 0.0414983406662941, -0.0016028190730139613, 0.014916437678039074, 0.284504234790802, 0.518130898475647, 0.5497571229934692, 0.5088997483253479, 0.4832776188850403, -0.5066143274307251, -1.1272495985031128, -0.2595066726207733, 0.04819624125957489, -0.18840435147285461, -0.10629671066999435, -0.08020201325416565, 0.1730467677116394, -0.6908779740333557, -0.6584849953651428, -0.8718252182006836, -0.7325005531311035, -0.8391596078872681, -0.7860933542251587, -0.5221309661865234, 0.04541638493537903, -0.05831250920891762, 0.08205996453762054, 0.0042231641709804535}, {-0.011504043824970722, -0.015188910067081451, -0.005704743321985006, 0.05370860919356346, 0.022893469780683517, 0.056211166083812714, -0.04345441609621048, -0.019956422969698906, 0.0750291496515274, 0.07652442157268524, 0.03409147635102272, -0.008474843576550484, 0.17307889461517334, -0.08504502475261688, -0.37483784556388855, -0.10880493372678757, -0.07443458586931229, 0.05191468074917793, -0.054208505898714066, 0.05961009860038757, 0.02782292105257511, -0.0013786446070298553, -0.01595626398921013, -0.010567214339971542, 0.02695990726351738, 0.026612170040607452, 0.014821664430201054, -0.02817397750914097, 0.0006648462731391191, 0.07300025224685669, -0.0600479431450367, 0.043788716197013855, 0.1751261055469513, 0.37169429659843445, 1.1670712232589722, 1.1285972595214844, 0.5056895613670349, 0.8189001679420471, 0.9755958318710327, 1.724881887435913, 1.4177097082138062, 1.3725671768188477, -0.05298310145735741, -0.20473045110702515, -0.7350049018859863, 0.7242209315299988, 2.311896324157715, 1.4124284982681274, 1.1774744987487793, 0.46015146374702454, 0.712662935256958, 0.59539395570755, -0.03638265281915665, -0.03206546977162361, -0.028048526495695114, 0.08279558271169662, -0.05678548663854599, -0.047122009098529816, 0.11117309331893921, 0.6140451431274414, 0.8009958863258362, 0.19898611307144165, 1.1031004190444946, 1.5819129943847656, 1.228124737739563, 0.7778282761573792, 0.4003209173679352, 0.2709278464317322, 0.8335539102554321, 1.1804590225219727, 1.427302360534668, 0.44360649585723877, -0.4802001714706421, -0.07948367297649384, 0.741084098815918, 1.8171627521514893, 1.3315001726150513, 1.518359899520874, 1.1709935665130615, 1.3223782777786255, 0.7340279221534729, 0.22286619246006012, -0.07735586911439896, 0.021013127639889717, 0.0838581770658493, 0.05315777659416199, -0.34462976455688477, 1.0491738319396973, 0.7157265543937683, -0.15897250175476074, 0.6603255867958069, 0.5353031754493713, 0.45538851618766785, -0.3141239583492279, -0.029662873595952988, 0.49122366309165955, 0.48051273822784424, 1.6830122470855713, 2.017338275909424, 1.4203554391860962, 1.0086172819137573, 0.498319536447525, -0.10780991613864899, -0.2585739195346832, 0.33145445585250854, -0.21183131635189056, -0.27756834030151367, 1.8810347318649292, 1.4692870378494263, 0.4733426868915558, 0.594314694404602, -0.08258532732725143, 0.026539064943790436, 0.1078963652253151, -0.46253716945648193, 1.1122539043426514, 0.9122660160064697, 0.5275446176528931, 1.2520922422409058, 0.22803616523742676, 0.7524129748344421, 0.4450957477092743, 0.30318090319633484, 0.16602753102779388, 0.0491894893348217, 0.2980596423149109, -0.1707085818052292, -0.02088303677737713, -0.09704122692346573, 0.5326212644577026, 0.011493033729493618, -0.9069008231163025, -0.7203807830810547, -0.46751031279563904, -0.8125823140144348, -0.7279497981071472, -0.26681482791900635, 0.9663964509963989, 0.3609200716018677, 0.6831803321838379, 0.016561685130000114, -0.018682211637496948, 0.7770328521728516, 0.8942198157310486, 0.5818958878517151, 0.020285746082663536, 0.04598972573876381, -0.16226616501808167, 0.09349659830331802, -0.16023463010787964, 0.30393511056900024, -0.16549627482891083, -0.1869380921125412, 0.003268664237111807, 0.008205092512071133, -0.2238474041223526, 0.2371734231710434, 0.013215542770922184, -0.07274550199508667, -0.171281099319458, -0.07257469743490219, -0.16871023178100586, -0.4144681990146637, -1.2749974727630615, -0.7753031849861145, -0.6549193263053894, 0.20828062295913696, 0.6063488721847534, -0.010377945378422737, 0.2010754942893982, 0.5288152694702148, 1.1457161903381348, 0.34467801451683044, 0.0003578506875783205, -0.25157350301742554, 0.37273794412612915, 0.4946044087409973, 0.0033019238617271185, 0.11837097257375717, -0.1477820873260498, -0.5939993262290955, -0.2956918478012085, -0.2564348578453064, -0.10668182373046875, -0.14531195163726807, 0.04956443980336189, 0.44941991567611694, 0.12685978412628174, 0.6876843571662903, 0.03361852467060089, 0.1822163462638855, -0.5469417572021484, -0.11619764566421509, 0.6314836740493774, -0.2838795483112335, -0.12746219336986542, 0.0007888087420724332, 0.3328903913497925, -0.5303851962089539, 0.06412401795387268, 0.5027086138725281, -0.08765249699354172, 0.18656115233898163, -0.03468519449234009, 0.4364170730113983, 0.39022788405418396, -0.0694548636674881, -0.1364303082227707, -0.0016832392429932952, -0.12618432939052582, -0.013924052938818932, -0.1984480321407318, -0.43386876583099365, 0.24308344721794128, 0.3152408301830292, -0.033968228846788406, -0.4891669750213623, -0.37147876620292664, -0.32336097955703735, -0.16414065659046173, 0.1421331763267517, 0.5384736061096191, -0.787346363067627, 0.16768616437911987, 0.024735573679208755, -0.41554591059684753, -1.0087038278579712, -0.17122378945350647, 0.3023180067539215, 0.18774758279323578, -0.0897383764386177, -0.05801079049706459, -0.7437825798988342, -0.15402068197727203, -0.21313880383968353, 0.03613600879907608, 0.0007964210235513747, 0.01020477619022131, 0.03134056180715561, -0.5280332565307617, 0.19919869303703308, 0.0567462258040905, 0.29174602031707764, 0.5080055594444275, 0.28115081787109375, 0.06648990511894226, 0.26578426361083984, 0.26675310730934143, -0.07750004529953003, 0.16386109590530396, -0.1897651106119156, 0.7866268754005432, 0.022982237860560417, -0.25631070137023926, -1.354736328125, -0.08583039045333862, 0.9321944117546082, 0.48528093099594116, 0.6506770253181458, 0.12474509328603745, -0.20771874487400055, -0.1424015462398529, -0.325702041387558, -0.23338253796100616, -0.4440380930900574, -0.2856326103210449, -0.06527605652809143, -0.29424330592155457, -0.43867558240890503, -0.6099746227264404, -0.5247107744216919, -0.0355776846408844, -0.16863159835338593, 0.13301722705364227, 0.5797592997550964, 0.2795354723930359, 0.4777074158191681, 1.2098993062973022, 0.892110288143158, 0.2212965041399002, 0.019294733181595802, 0.09160452336072922, -0.06183578819036484, 0.3596856892108917, 0.583524227142334, 0.15778324007987976, -0.010504367761313915, 0.018706120550632477, -0.09876996278762817, -0.6182260513305664, -0.48328426480293274, -0.05566829815506935, -0.14305102825164795, -0.42039209604263306, -0.16839852929115295, -0.4481455385684967, -0.3189494013786316, -0.15334875881671906, -0.647915780544281, -0.018869055435061455, 0.0137496842071414, -0.03575027361512184, 0.07001756876707077, 0.5343039631843567, 0.8600825071334839, 0.3707248568534851, 0.9518662095069885, 0.04172230884432793, 0.021593641489744186, 0.45086240768432617, 0.7085741758346558, 0.3820780813694, -0.25880494713783264, -0.46098020672798157, -0.2757294774055481, 0.015237756073474884, -0.009840928949415684, -0.049460090696811676, 0.025450365617871284, -0.4295249283313751, 0.01480770017951727, 0.3889721930027008, 0.7677072882652283, -0.344321072101593, -0.5907927751541138, -0.3811444342136383, -0.18922756612300873, -0.0658470168709755, 0.3631438612937927, 0.18308939039707184, 0.09528700262308121, 0.22672413289546967, 0.8952738642692566, -0.10661809891462326, 0.2036556601524353, -0.22252266108989716, -0.017651066184043884, -0.6110796332359314, -0.12820248305797577, 0.8313418030738831, -0.41577109694480896, -0.07906122505664825, 0.3762650489807129, 0.4324563443660736, 0.3066530227661133, 0.667186975479126, 0.13409210741519928, 0.0425465852022171, 0.33628883957862854, 0.5895477533340454, 0.6364909410476685, -0.2185862958431244, -0.011502382345497608, -0.3352036774158478, -0.46015533804893494, -0.3443832993507385, -0.25275033712387085, -0.10765330493450165, -0.08185136318206787, 0.954021155834198, 1.0787855386734009, -0.10628185421228409, -0.004500926937907934, -0.12243962287902832, 0.0011138482950627804, -0.7712211608886719, -0.7720515727996826, 1.3691685199737549, 0.1100018098950386, -0.41020599007606506, 0.6030079126358032, 0.058012954890728, -0.008080428466200829, 0.32044827938079834, -0.2115638107061386, 0.40503185987472534, 0.7358724474906921, 0.6695107221603394, -0.3549427092075348, -0.11892824620008469, 0.2942381203174591, -0.6000114679336548, -0.35746580362319946, -0.25512629747390747, -0.7296021580696106, -0.5687992572784424, -0.15332216024398804, 1.4037106037139893, 0.9492606520652771, -0.2086782157421112, -0.19791506230831146, 0.08464152365922928, 0.6175188422203064, 1.0372892618179321, -0.3074616491794586, 0.9374487400054932, -0.729316771030426, -0.4423457980155945, -0.25020676851272583, -0.10977533459663391, -0.6196128726005554, 0.42937982082366943, 0.25386372208595276, 0.6592427492141724, 0.6677067875862122, 0.027281632646918297, -0.2874978482723236, -0.4087166488170624, -0.6828547120094299, -0.5336659550666809, -0.3308350443840027, -0.6860237121582031, -0.6967736482620239, 0.20457510650157928, 0.0329517163336277, 0.8757234215736389, 1.057064414024353, -0.8863558173179626, -0.9097036719322205, 0.3947282135486603, 0.5625645518302917, 0.7285193800926208, 0.25811484456062317, -0.0439976304769516, 0.05751054361462593, -0.3197794556617737, -0.5314009785652161, 0.04536778852343559, -0.008244098164141178, -0.296587735414505, 0.07926442474126816, 0.23753173649311066, 0.4099341928958893, -0.01459175068885088, 0.1858794391155243, -0.14548759162425995, -0.6554915308952332, -0.7301729917526245, -0.38952410221099854, -0.413321852684021, 0.23367466032505035, 0.4913315773010254, 0.46173056960105896, 0.6663075685501099, 1.0232017040252686, -0.3700721859931946, -1.5090618133544922, -0.3320940136909485, -0.14759674668312073, 1.1894068717956543, 0.18710078299045563, 0.11893484741449356, 0.7444061040878296, 0.15114471316337585, -0.19368129968643188, 0.13531602919101715, -0.051561616361141205, 0.08824126422405243, 0.1186019629240036, 0.3562939465045929, -0.05759985372424126, -0.37520289421081543, -0.46584251523017883, -0.18984803557395935, -0.3550341725349426, -0.39410901069641113, -0.41474050283432007, 0.12421151250600815, 0.17420336604118347, -0.08911460638046265, -0.44430261850357056, 0.10401773452758789, 0.6750692129135132, 0.01949896104633808, 0.022795261815190315, 0.16332808136940002, 0.04018812254071236, 1.1331852674484253, -0.15306124091148376, 0.0994521751999855, 0.49808019399642944, -0.08050993084907532, -0.04390875995159149, -0.032689228653907776, -0.30405139923095703, 0.0638195276260376, 0.5731344819068909, 0.0738510936498642, -0.6540246605873108, -0.7344641089439392, -0.947706401348114, -0.9641226530075073, 0.07633603364229202, 0.046195074915885925, -0.0540509931743145, 0.4902428090572357, 0.33919379115104675, -0.3526845872402191, 0.1496015191078186, 0.1550832986831665, 0.191507488489151, -0.09900558739900589, 0.5902359485626221, 0.15961086750030518, -0.10626666992902756, 0.3896450102329254, -0.30465221405029297, -0.08472606539726257, 0.17124305665493011, -0.600714385509491, -0.3625027537345886, -0.2510463297367096, 0.0019347947090864182, -0.08238072693347931, 0.44587936997413635, -0.17294837534427643, 0.031161999329924583, -0.33913782238960266, -0.48390448093414307, -0.27618029713630676, 0.513053834438324, 0.5062525272369385, 0.5477862358093262, 0.02189011685550213, -0.06305490434169769, -0.6046881079673767, 0.1913982629776001, 0.42320433259010315, -0.547016441822052, 0.12434342503547668, 0.05860105901956558, -0.8772876858711243, 0.04537532478570938, 0.2840748429298401, -0.5774807929992676, -0.0030731502920389175, -0.38218018412590027, 0.33146968483924866, -0.1911623477935791, 0.7147419452667236, 0.7138900756835938, 0.771022617816925, 0.9755272269248962, 0.5472860336303711, 0.4565654993057251, 0.12281864136457443, -0.11761446297168732, 0.14879655838012695, -0.07947646081447601, 0.5337627530097961, 0.816292405128479, 0.3016154170036316, 0.4093199372291565, 0.09078751504421234, 0.5666356682777405, 0.12684723734855652, -0.926044225692749, -1.0648688077926636, -1.5328949689865112, -0.4252502918243408, -0.032386090606451035, -0.30949899554252625, -0.3287956416606903, -0.35830533504486084, -0.4704669117927551, 0.1531703919172287, -0.015803666785359383, 1.193753719329834, 0.5007829666137695, 0.4406265914440155, 0.18483465909957886, 0.28452780842781067, 0.6320597529411316, 0.16432495415210724, 0.6555017232894897, 0.29578331112861633, -0.1771540641784668, 0.10761087387800217, 0.2824910581111908, 0.2764146029949188, -0.03446732461452484, 0.6028795838356018, 0.4447227418422699, -0.16313789784908295, -1.0720269680023193, -1.9703642129898071, -0.28494322299957275, 0.16463641822338104, 0.04634889215230942, -0.5619271397590637, 0.24938581883907318, 0.007163676433265209, 0.358731210231781, 0.28182217478752136, 0.6879684925079346, 1.6038655042648315, 0.49439123272895813, -0.2894716262817383, 0.5122762322425842, 0.7835301756858826, 0.7296938300132751, 0.513399064540863, 0.4153780937194824, 0.42101985216140747, 0.30623605847358704, 0.25967520475387573, 0.17776453495025635, 0.08101604878902435, 0.0783730074763298, -0.05032143369317055, 0.25037726759910583, -1.0415477752685547, -1.685532808303833, -1.7288661003112793, -0.09616770595312119, -0.07887162268161774, -0.036929599940776825, 0.04804863780736923, -0.3389609754085541, -0.6311245560646057, 0.16142958402633667, -0.2259250432252884, 1.0176763534545898, -0.017778685316443443, -0.433063268661499, 0.24453118443489075, 0.3279671370983124, -0.18114444613456726, 0.30879276990890503, 0.22017325460910797, 0.3759555518627167, 0.6366862654685974, 0.15997692942619324, 0.21597659587860107, -0.4213537871837616, -0.4584459662437439, -0.07422352582216263, -0.36955559253692627, -0.2224111557006836, -1.2634797096252441, -1.6523725986480713, -1.0498908758163452, 0.8856160640716553, 0.07918007671833038, -0.012274441309273243, -0.025196025148034096, 0.5107051134109497, 0.5760247111320496, 0.4544863700866699, 0.6008003354072571, 0.5995952486991882, -0.18222910165786743, -0.0691988542675972, 0.7836769819259644, 0.009831031784415245, 0.15328197181224823, 0.13283172249794006, 0.3078933656215668, -0.12637677788734436, 0.16974522173404694, -0.3470989763736725, 0.1702682077884674, 0.7068804502487183, -0.3735363483428955, -0.004258845467120409, 0.1967497617006302, -1.1181294918060303, -1.7235954999923706, 0.652557909488678, 0.7703103423118591, 0.381693035364151, 0.04317682236433029, 0.0218042079359293, -0.0200033038854599, -0.13853785395622253, 1.3311775922775269, 0.5244145393371582, -0.6815928220748901, -0.035881511867046356, 0.6863581538200378, 0.4574454724788666, 0.8634933233261108, -0.2216351181268692, 0.26968351006507874, 0.727603018283844, 0.02653409168124199, 0.0011294531868770719, -0.17832814157009125, -0.07530976831912994, 0.08475863933563232, -0.9320303797721863, -1.8184449672698975, -1.5897136926651, -1.9765349626541138, -2.014238119125366, -2.2391035556793213, -0.8226512670516968, -0.5106251239776611, -0.13214652240276337, 0.027221037074923515, -0.041356831789016724, 0.015406617894768715, 0.3058353662490845, -0.17778179049491882, -0.37503644824028015, -0.9123846888542175, -0.36850401759147644, -0.2362888604402542, -0.7746233344078064, 0.08141585439443588, 0.06334730982780457, -0.0766705796122551, -1.032611608505249, -0.6762253046035767, -1.1205240488052368, -1.2546075582504272, -1.0808138847351074, -1.4144105911254883, -2.0917811393737793, -1.9959627389907837, -0.8627687096595764, -0.16240617632865906, -0.7547421455383301, -0.7653230428695679, -0.14770032465457916, -0.1606028974056244, -0.03810424357652664, -0.0860021710395813, -0.011619506403803825, -0.05829685181379318, 0.0391896590590477, 0.15692196786403656, 0.5732961297035217, -0.928534209728241, -1.476565957069397, -1.673966646194458, -2.2690815925598145, -1.733987808227539, -1.2101969718933105, -0.953300952911377, -0.5845193266868591, -0.32029345631599426, -0.3596532940864563, -0.27835363149642944, 0.7595142722129822, 0.0893416777253151, -0.9548263549804688, 0.026646485552191734, 0.34680888056755066, 0.596714198589325, 0.6359881162643433, -0.2787705361843109, -0.0033832048065960407, -0.0737769678235054, -0.03263689577579498, 0.04904724285006523, 0.07229412347078323, 0.017151014879345894, -0.0627116933465004, -0.07481241971254349, -0.0814911350607872, 0.042578842490911484, 0.20989061892032623, 0.40301811695098877, 0.597874641418457, 0.6091142892837524, -0.1425144523382187, 0.027172956615686417, 0.5413523316383362, -0.5765331387519836, -0.899297833442688, -0.5076673626899719, 0.43086549639701843, 0.2820848226547241, -0.8339571952819824, -0.8139787912368774, 0.14943739771842957, 0.34567269682884216, 0.12703359127044678, -0.6908812522888184, 0.06718821078538895, -0.02321111038327217, -0.03916957229375839, -0.01745717227458954}, {-0.025033799931406975, 0.033754635602235794, 0.022047480568289757, 0.06672173738479614, 0.03933395817875862, -0.059327587485313416, 0.01382986269891262, -0.0670371800661087, 0.023501286283135414, -0.0036218261811882257, 0.07636452466249466, -0.08342478424310684, -0.31440097093582153, -0.3075507581233978, 0.12213494628667831, 0.08496011048555374, 0.04545406252145767, -0.04638540744781494, -0.0858735665678978, -0.007617422379553318, 0.04543743282556534, 0.05779177322983742, -0.07715699821710587, 0.027507469058036804, -0.00832870788872242, -0.05234204977750778, -0.07150069624185562, 0.017244109883904457, 0.07774268090724945, 0.07199140638113022, 0.04034622013568878, -0.01865317113697529, 0.04794890806078911, 0.0529269315302372, -0.1434617042541504, -0.02861587516963482, -0.10798735916614532, -0.10210034996271133, -0.07728089392185211, 0.15478132665157318, -0.5127190351486206, -0.9632483124732971, -0.9422923922538757, -0.9694570302963257, -0.5673570036888123, 0.0691666454076767, -0.8613765835762024, -0.5909251570701599, -1.041643738746643, -0.6134330034255981, -0.7299115657806396, -0.6754720211029053, -0.02899998426437378, 0.014140330255031586, 0.07318593561649323, 0.03470611944794655, -0.008967901580035686, 0.0003874871472362429, -0.05852356553077698, -0.6591939926147461, -0.5020876526832581, -0.4947715997695923, -1.404662013053894, -1.885554552078247, -1.475016713142395, -2.112661600112915, -1.4622234106063843, -1.1256545782089233, -1.586251974105835, -1.4394452571868896, -2.311302900314331, -1.6409357786178589, -1.3013685941696167, -0.998198926448822, -0.9615188837051392, -0.9805486798286438, -0.771943211555481, -1.0679856538772583, -0.7360953688621521, -0.5589232444763184, -0.6485101580619812, -0.7929275035858154, -0.051061682403087616, -0.06964223831892014, -0.07616062462329865, -0.03507281467318535, -0.3046032190322876, -0.6810147166252136, -0.9659423828125, -1.0984772443771362, -1.7580054998397827, -3.420804738998413, -3.211087465286255, -2.9918153285980225, -2.157349109649658, -2.0218865871429443, -1.0335296392440796, -1.5285570621490479, -0.9657109379768372, 0.34542763233184814, -0.08548402786254883, -0.9350565075874329, -0.21684621274471283, -0.1045728549361229, -0.7821723222732544, -0.8090099692344666, 0.004317785147577524, 0.1883077770471573, -0.8627443909645081, -1.2146272659301758, -0.5465432405471802, 0.017055923119187355, -0.08006148785352707, 0.1925467997789383, -0.3141624629497528, 0.4220317006111145, 0.3348218500614166, -0.20990782976150513, -0.8197764754295349, -1.1635631322860718, 0.12337271869182587, -0.273779958486557, -1.0763578414916992, -0.576972246170044, -0.3157900869846344, -0.7023264169692993, -0.11278679221868515, -0.7920628786087036, -0.9395385384559631, -0.36692726612091064, -0.29360127449035645, 0.21139375865459442, -0.13723573088645935, -0.24098919332027435, -0.24431739747524261, 0.2757832705974579, -0.46510398387908936, -0.8138572573661804, 0.011106881313025951, -0.20217740535736084, 0.007274227682501078, 0.07138973474502563, 0.14201253652572632, 0.47562575340270996, 0.12956169247627258, 0.1294160932302475, -0.06197356805205345, 0.07634500414133072, -0.2392723560333252, 0.9239553213119507, -0.34241747856140137, -0.5050106048583984, -0.320797324180603, -1.138324499130249, -0.709514856338501, -0.6568402051925659, 0.3791491985321045, 0.3417518734931946, -0.13609370589256287, 0.1800568848848343, 0.32621097564697266, 0.004876391496509314, -0.502364993095398, -0.37720414996147156, -0.748778760433197, 0.32980281114578247, 1.5871776342391968, 0.1931329071521759, 0.036579716950654984, 0.1809537708759308, -0.25550100207328796, 0.07620219141244888, 0.9244422316551208, 0.8650731444358826, 0.07762545347213745, 0.5883255004882812, 0.3621579110622406, -0.24676908552646637, -0.5025149583816528, -0.819174587726593, -0.7514462471008301, -0.7103943824768066, -0.9412944912910461, -0.5461781620979309, -0.6098667979240417, -0.15694431960582733, -0.5830466747283936, -0.29693710803985596, -0.08868291229009628, -0.48149165511131287, -0.09488696604967117, 0.7634058594703674, 0.384633332490921, -0.4261634051799774, 1.5315613746643066, 0.9244054555892944, -0.06839384883642197, -0.49154606461524963, -0.7557241320610046, 0.015602890402078629, 1.065483570098877, 1.3736310005187988, 0.5788965821266174, 0.5394982099533081, 0.2541435956954956, -0.2695336639881134, -0.16350962221622467, -0.3011193871498108, -0.6668222546577454, -0.854613721370697, -1.1344151496887207, -0.46006590127944946, -0.43631935119628906, -0.21835781633853912, -0.3642137348651886, -0.4087558090686798, -0.6298611760139465, -0.081220343708992, -0.04062330350279808, -0.16940297186374664, 0.5019424557685852, 0.25114327669143677, 1.6363509893417358, 2.069540023803711, -0.010675415396690369, -0.6015987396240234, -0.5925230383872986, 0.41506001353263855, 0.5796384215354919, 1.0083171129226685, -0.008550459519028664, 0.4183526635169983, -0.3348987400531769, 0.019522635266184807, -0.2544904947280884, -0.4440099000930786, -0.25136175751686096, -0.4799104928970337, -0.6931034326553345, -0.12084101140499115, -0.30573421716690063, -0.2858482301235199, -0.2321801781654358, -0.178181454539299, 0.11975785344839096, 0.22162292897701263, 0.33216923475265503, -0.16556338965892792, 0.18585112690925598, 1.4541221857070923, 1.253172755241394, 1.261005163192749, -0.04941890388727188, -0.5613029599189758, 0.37429627776145935, 0.2688673138618469, -0.49066683650016785, -0.22900934517383575, -0.516156792640686, 0.0937691256403923, -0.004512612242251635, 0.4044683575630188, -0.3673161268234253, 0.015225549228489399, -0.6865938305854797, -0.7452349662780762, -0.8810339570045471, -0.2267993986606598, 0.229347825050354, -0.060831088572740555, -0.10042902827262878, 0.05708363652229309, 0.4817148745059967, 0.467862606048584, -0.2286934107542038, -0.11728058010339737, 0.2059457004070282, 1.9524892568588257, 1.5743731260299683, -0.45544612407684326, 0.0257776640355587, -0.4236012399196625, 0.11315643787384033, -0.4486733376979828, 0.47169071435928345, -1.3316383361816406, -0.38306644558906555, -0.05244491249322891, 0.0012595326406881213, 0.38877055048942566, -0.13306322693824768, -0.41625332832336426, -0.5672671794891357, -1.3819416761398315, -1.4316773414611816, 0.09007115662097931, -0.23432093858718872, -0.06230492889881134, 0.2489447444677353, -0.0013884797226637602, 0.12660716474056244, 0.3677058219909668, -0.25704383850097656, 0.0029348963871598244, 0.8123520016670227, 1.7772799730300903, 2.0167629718780518, -0.3006182610988617, 0.016416212543845177, 0.5913269519805908, -0.5251110792160034, -0.6089501976966858, -0.004297379404306412, -0.6312448978424072, -0.046205200254917145, -0.11628547310829163, -0.12913097441196442, 0.5470020771026611, 0.1737165004014969, -0.22449134290218353, -0.23678718507289886, -0.862713098526001, -1.285543441772461, -0.31112831830978394, -0.11636233329772949, -0.3365336060523987, -0.2931457757949829, 0.025207145139575005, -0.4294375479221344, -0.1958685666322708, -0.356330007314682, -0.13941264152526855, 1.2999464273452759, 1.5915855169296265, 2.516903877258301, 0.4231206774711609, 0.03307228907942772, -0.3761093020439148, -0.8233701586723328, -0.09943026304244995, -0.242596834897995, -0.552886426448822, 0.01765763945877552, -0.03402512148022652, 0.06688211858272552, 0.19979332387447357, 0.3699102997779846, 0.6817824244499207, 1.1492985486984253, 0.780547022819519, -0.654180109500885, 0.1275143027305603, -0.11200882494449615, -0.5797207355499268, -0.43943077325820923, 0.06374473124742508, 0.0060192132368683815, 0.188786581158638, -0.07627923786640167, -0.4106312394142151, 0.5192562937736511, 0.03750617802143097, 1.3137702941894531, 0.3331550359725952, 0.10182533413171768, -0.09283670783042908, -0.42524099349975586, -0.5516082644462585, -0.4228218197822571, -0.012642903253436089, 0.263472318649292, 0.38319459557533264, 0.27556174993515015, 0.31476226449012756, 0.4333479106426239, 0.5489290356636047, 1.0689113140106201, 0.28610628843307495, -0.5349970459938049, 0.26872381567955017, -0.22534728050231934, 0.060846034437417984, 0.08781756460666656, 0.2543916702270508, 0.07487619668245316, 0.6466138362884521, 0.6345546245574951, -0.01846311427652836, -0.7773445248603821, -1.1116911172866821, 0.16203440725803375, -0.1279011219739914, 0.5870753526687622, 0.060512274503707886, -0.5652601718902588, -0.07371842861175537, 0.33735793828964233, 1.04379141330719, 0.32658037543296814, 0.6204479932785034, 0.43288454413414, 0.45758509635925293, 0.28569552302360535, 0.6608783006668091, 1.1823787689208984, 0.11058060824871063, -0.11399955302476883, 0.06617596000432968, -0.122489795088768, 0.21437999606132507, 0.1358480453491211, 0.10490452498197556, 0.210807666182518, 0.42688485980033875, 0.013554568402469158, -0.5287028551101685, -0.22164388000965118, -1.5179078578948975, -1.4690215587615967, -0.6378933191299438, 0.5844953656196594, 0.7572805285453796, 0.593535840511322, -0.1426270455121994, -0.01893133483827114, 0.04860294610261917, -0.10404065996408463, 0.06156303733587265, 0.07528553903102875, 0.16746214032173157, 0.056047964841127396, 0.19327200949192047, 0.7523831725120544, 0.5419893264770508, 0.3597245216369629, 0.1393314003944397, 0.27716636657714844, -0.3587176203727722, -0.28173884749412537, -0.016058210283517838, 0.03229442983865738, -0.018478121608495712, -0.32564443349838257, 0.021509874612092972, -0.8394103050231934, -2.188791513442993, -2.0471580028533936, -0.07562640309333801, -0.17715652287006378, 0.29509350657463074, -0.7742785811424255, 0.08798769861459732, -0.6414880752563477, -0.710136890411377, -0.14361798763275146, -0.17186515033245087, 0.1979677528142929, 0.1119159683585167, -0.09456773102283478, 0.25182053446769714, 0.5879730582237244, 0.6922866702079773, 0.20442147552967072, 0.3095482587814331, -0.023862779140472412, 0.09987173974514008, -0.14926841855049133, -0.2628348171710968, -0.4130704402923584, -0.3826933205127716, -0.23582446575164795, 0.012369107455015182, -0.4536048471927643, -1.777747392654419, -1.1790941953659058, -0.2711096405982971, -0.039751116186380386, 0.15949666500091553, -1.0978957414627075, -0.7479989528656006, -0.8934090733528137, -0.3906645178794861, -0.09991468489170074, -0.04127275198698044, -0.4522024393081665, -0.16089722514152527, -0.2671539783477783, 0.09737441688776016, 0.3541622757911682, 0.38557401299476624, 0.25877857208251953, 0.33192917704582214, 0.1569291204214096, -0.2662560045719147, -0.39235860109329224, -0.7323281764984131, -0.8936251997947693, -0.08927185088396072, -0.18585167825222015, -0.3545059263706207, -0.6016935706138611, -0.4970210790634155, 0.5104764103889465, -0.48566776514053345, -0.5235787630081177, 0.01669347658753395, -1.201725959777832, -1.4988964796066284, -0.7674214839935303, -0.05721168965101242, 0.20700445771217346, 0.041713058948516846, -0.02885535918176174, 0.10268984735012054, -0.15520940721035004, 0.6998795866966248, 1.0044533014297485, 0.510903000831604, 0.11585409194231033, -0.3550613820552826, -0.12178093194961548, -1.0509898662567139, -0.23904773592948914, -0.7673934102058411, -0.13391153514385223, -0.08054693043231964, 0.19454194605350494, 0.3522225022315979, 0.05750570818781853, -0.24925027787685394, 1.109567403793335, 0.5254071950912476, -0.06555891782045364, 0.0715271458029747, -1.1150319576263428, -1.202543020248413, -0.5344036817550659, 0.29546254873275757, -0.07496326416730881, -0.29937979578971863, -0.4107203483581543, -0.18269741535186768, -0.11029265820980072, 0.7704310417175293, 0.29106318950653076, -0.001784631866030395, 0.03165186569094658, -0.03345903754234314, -0.47507205605506897, -0.3653343915939331, 0.11009746044874191, -0.1959148347377777, 0.04507309943437576, 0.33177196979522705, 0.14618980884552002, -0.17805011570453644, 0.012506396509706974, -0.29733043909072876, -0.9530932307243347, 0.1397506445646286, 0.03271389752626419, 0.12794910371303558, 0.40738779306411743, -0.3725912570953369, -0.6959661841392517, -0.009109746664762497, -0.38997381925582886, -0.3344404995441437, -0.3667282164096832, -0.5675509572029114, -0.47012194991111755, 0.017079191282391548, -0.10640707612037659, -0.5043405294418335, -0.10481559485197067, -0.04066971316933632, -0.11344537883996964, 0.44279637932777405, 0.4115566611289978, -0.1601857990026474, 0.1112845167517662, 0.2575587332248688, 0.21666696667671204, 0.20567557215690613, 0.04023938626050949, -1.3967616558074951, -0.42692869901657104, -0.0510261133313179, -0.07971081882715225, 0.2119845151901245, 0.8756756782531738, 0.2720414996147156, 0.6314343214035034, 0.6020907163619995, 0.37377241253852844, 0.3072879910469055, 0.47458308935165405, -0.30321675539016724, -0.03175248205661774, -0.02412492036819458, -0.32207024097442627, 0.1226072609424591, 0.11866128444671631, 0.15959443151950836, -0.20869342982769012, 0.7049365639686584, 0.36220163106918335, 0.23640479147434235, 0.7058983445167542, 0.4407717287540436, 0.278916597366333, 0.7175509333610535, -0.43627145886421204, -1.657334327697754, -0.13842259347438812, 0.0035507031716406345, -0.06659514456987381, -0.01660109870135784, 0.30250194668769836, 0.8146556615829468, 0.6725050210952759, -0.11318381130695343, 0.9512941241264343, 0.5038959383964539, 0.008011779747903347, 0.1978089064359665, -0.016447603702545166, 0.004859181120991707, -0.08189266175031662, 0.1823740452528, -0.0007973465253598988, 0.2789881229400635, 0.39462342858314514, 0.4198797047138214, 0.5418972969055176, 1.1584724187850952, 0.7143974900245667, 0.24992075562477112, -0.29653140902519226, -0.824472188949585, -0.37003618478775024, -0.4453281760215759, 0.40910473465919495, -0.0797400027513504, -0.07272926717996597, 0.025359107181429863, -0.12873609364032745, 0.26883506774902344, 0.40920713543891907, -0.12089473754167557, 0.18814001977443695, -0.10649072378873825, 0.4769062399864197, 0.5605757236480713, 0.1667662113904953, 0.3970116674900055, 0.5489746928215027, 0.20484919846057892, 0.5116594433784485, 0.18415766954421997, 0.6481504440307617, -0.09287326782941818, 0.2646240293979645, -0.08402104675769806, 0.6098411083221436, -0.004779397044330835, -1.0630205869674683, -0.8922645449638367, -0.5801738500595093, -0.03995123878121376, 0.5441807508468628, 0.08006615191698074, -0.037294816225767136, -0.029752837494015694, 0.3666299283504486, 0.30287888646125793, -1.140674114227295, -1.4455294609069824, -0.5866363644599915, -0.6233983635902405, -0.587586522102356, 0.10685165971517563, -0.1898801475763321, 0.3259957730770111, 0.32651036977767944, 0.195468008518219, 0.36048850417137146, -0.11836931109428406, 0.26270538568496704, 0.39034000039100647, -0.01100799161940813, -0.06225782632827759, -0.009399556554853916, -0.6771141290664673, -0.3159444332122803, -0.38836655020713806, -0.39552244544029236, 0.3912446200847626, -0.7765023112297058, 0.05987934395670891, 0.052795372903347015, -0.02876446582376957, -0.5201706886291504, -0.6751442551612854, -1.3101234436035156, -2.1229608058929443, -0.9968093037605286, -1.5327528715133667, -1.6572797298431396, -1.0129225254058838, -0.4321838617324829, -0.5028830766677856, -0.48218947649002075, -0.3402738869190216, -0.3454173505306244, 0.24812138080596924, -0.2776593863964081, -0.5385453104972839, -0.9610505700111389, -0.8158766627311707, -1.241995930671692, -1.2039110660552979, -0.6117537021636963, 0.5942295789718628, -0.27704930305480957, -0.3468564748764038, -0.2608407735824585, -0.05152418091893196, 0.00832474883645773, -0.03920875862240791, -0.05041000619530678, 0.03637482970952988, -0.2972140312194824, -0.5996262431144714, -1.4080134630203247, -1.4934037923812866, -1.5220807790756226, -1.8470526933670044, -1.770094871520996, -1.3905912637710571, -0.993645966053009, -1.5322309732437134, -1.731710433959961, -0.9868611693382263, -1.084151268005371, -1.6043293476104736, -2.2510058879852295, -1.406463384628296, -2.29211688041687, -1.648370385169983, -0.9601055383682251, -0.36566561460494995, 0.5399853587150574, -0.060849010944366455, -0.07975161075592041, -0.006734173744916916, -0.045715562999248505, 0.01965569145977497, 0.0582883246243, -0.036415331065654755, 0.18169762194156647, 0.44299057126045227, 0.8911351561546326, 0.6772518157958984, 0.06587842851877213, 0.16883842647075653, -1.141572117805481, -1.382192850112915, -1.2452813386917114, -0.8364399075508118, -1.2748768329620361, -1.0258896350860596, -1.036016821861267, -0.9517168402671814, -1.2733687162399292, -1.4309617280960083, -0.9947623610496521, -0.5839090347290039, -0.7618141174316406, -0.696715772151947, -0.066121406853199, 0.00990577694028616, 0.06803209334611893, -0.01902936026453972}, {-0.06083696708083153, 0.007894585840404034, 0.04872119426727295, -0.008661815896630287, -0.07142181694507599, 0.08075924217700958, 0.08569133281707764, 0.029597625136375427, -0.039317537099123, 0.07681580632925034, 0.06153106689453125, 0.032797958701848984, 0.08808165788650513, 0.055247172713279724, -0.08147212117910385, -0.04983934760093689, -0.060614798218011856, -0.0015607564710080624, 0.008667335845530033, -0.07153020799160004, -0.014040382578969002, -0.0824623703956604, 0.019236434251070023, 0.06267790496349335, -0.0384649932384491, 0.028370976448059082, 0.062162403017282486, -0.0540151484310627, 0.019781751558184624, -0.019485289230942726, -0.05731964111328125, -0.05524919554591179, 0.026151513680815697, 0.09993772208690643, 0.5827843546867371, 0.30835050344467163, 0.0763990581035614, 0.14556275308132172, 0.3710777759552002, 0.032245900481939316, -0.20246148109436035, -0.41320115327835083, -0.20507952570915222, -0.5503533482551575, -0.4271993339061737, 0.7095232009887695, 0.9774844646453857, 0.6452839374542236, 0.7092769742012024, 0.41189903020858765, 0.3262576162815094, -0.02776886709034443, 0.04106605798006058, 